/*
  Auto-generated model weights.
  Do not edit manually unless you retrain and export a new model.
*/

var PRETRAINED_MODEL = {"inputSize":28,"classes":["Circle","Square","Triangle"],"classNames":["Circle","Square","Triangle"],"architecture":"Conv -> ReLU -> 2x2 MaxPool -> Conv -> ReLU -> 2x2 MaxPool -> Flatten -> Dense ReLU -> Dense Softmax","settings":{"convLayers":2,"filtersPerLayer":12,"filterSize":3,"hiddenNeurons":64,"learningRate":0.001,"epochs":120},"finalFeatureShape":{"height":7,"width":7,"channels":12,"flatSize":588},"convLayers":[{"type":"convolution","activation":"relu","pooling":"max_pool_2x2_stride_2","kernels":[[[[0.6273362636566162,0.4292934834957123,-0.41167593002319336],[0.48833948373794556,0.317210853099823,0.2732826769351959],[-0.5000908374786377,0.35334596037864685,0.6499982476234436]]],[[[-0.4163440465927124,0.4197513461112976,0.3193133473396301],[0.35178452730178833,0.2927888333797455,0.3614442050457001],[0.1787884533405304,0.4501670300960541,0.07432004809379578]]],[[[-0.38689830899238586,0.33053770661354065,0.15192636847496033],[-0.5059926509857178,-0.34434592723846436,0.4405660927295685],[-0.5880715847015381,-0.6705313324928284,-0.2652127146720886]]],[[[0.06869436055421829,0.052643369883298874,-0.3757694363594055],[0.8289193511009216,0.3080992102622986,0.5159027576446533],[0.33313554525375366,0.337017297744751,0.6058858633041382]]],[[[0.19230398535728455,0.5545608401298523,0.1474023163318634],[0.09155725687742233,0.5218132138252258,0.15589813888072968],[0.27311646938323975,0.6381363868713379,0.4754250943660736]]],[[[-0.14572417736053467,0.1924215853214264,0.05964207649230957],[0.1692783534526825,-0.2031683623790741,-0.32996949553489685],[-0.1287868469953537,-0.2556743025779724,0.27351298928260803]]],[[[0.2230931669473648,0.4094752073287964,0.44066789746284485],[0.307833731174469,0.3978627324104309,-0.3893502950668335],[0.36296072602272034,-0.3219296336174011,-0.348225861787796]]],[[[0.23398810625076294,0.14037062227725983,-0.4406015872955322],[0.6012412309646606,0.1023111641407013,-0.29810023307800293],[-0.19191457331180573,0.5762884020805359,0.3592432141304016]]],[[[0.33105525374412537,-0.49483203887939453,-0.3270670771598816],[0.25741514563560486,0.3321470618247986,0.30820074677467346],[0.6143485903739929,1.0347386598587036,0.34920600056648254]]],[[[-0.22704577445983887,0.17719314992427826,-0.13437755405902863],[0.2041880488395691,-0.07734858244657516,0.19256915152072906],[-0.258949339389801,-0.16765645146369934,0.10291916131973267]]],[[[0.46275243163108826,0.18913576006889343,0.09471773356199265],[0.7154884934425354,0.05698884278535843,-0.3164548873901367],[0.7772642374038696,0.10788793116807938,-0.32301759719848633]]],[[[-0.3225315511226654,-0.19089007377624512,0.08326789736747742],[-0.043997734785079956,-0.2419620007276535,0.007818907499313354],[-0.2276938408613205,-0.2827988862991333,-0.18355421721935272]]]],"biases":[-0.04248696193099022,-0.1526443064212799,0.23604591190814972,-0.025735564529895782,-0.022309785708785057,-0.31089478731155396,-0.12309407442808151,-0.006319168955087662,-0.005932283587753773,-0.29138442873954773,-0.00183644809294492,-0.19955620169639587]},{"type":"convolution","activation":"relu","pooling":"max_pool_2x2_stride_2","kernels":[[[[-0.10302620381116867,-0.07988222688436508,-0.043726976960897446],[-0.12314145267009735,-0.06411239504814148,-0.09521538019180298],[-0.13915880024433136,-0.1936553716659546,0.06853074580430984]],[[-0.01037209015339613,0.1809873878955841,0.12739747762680054],[0.015667932108044624,0.1255122274160385,-0.056281350553035736],[-0.0439629890024662,-0.27054309844970703,-0.2917267680168152]],[[-0.001718466286547482,-0.07058116793632507,0.019563106819987297],[-0.11172862350940704,0.037581074982881546,-0.11119642108678818],[-0.02744591236114502,0.03461316600441933,0.045404840260744095]],[[0.09106266498565674,0.15238963067531586,-0.035471800714731216],[0.06160828843712807,-0.027453240007162094,-0.08188103884458542],[-0.17878347635269165,-0.12231479585170746,-0.1804494857788086]],[[0.06849244982004166,0.12222607433795929,0.08319085091352463],[0.00033689229167066514,0.13007323443889618,0.005744435358792543],[-0.006159394048154354,-0.16899031400680542,-0.04166600853204727]],[[-0.014435738325119019,-0.04408302903175354,0.08265217393636703],[0.02145325392484665,-0.05323904752731323,-0.04870324209332466],[-0.0045952945947647095,0.05372833460569382,-0.024588756263256073]],[[-0.11001136898994446,0.09573143720626831,0.020617900416254997],[0.1216919794678688,0.15412214398384094,-0.09133321046829224],[0.1715587079524994,-0.12185586988925934,-0.26327869296073914]],[[-0.09064392745494843,0.07606072723865509,0.02721497043967247],[-0.05186086520552635,0.03180219233036041,-0.05323522537946701],[-0.03040442429482937,-0.15285645425319672,-0.04649278521537781]],[[0.04323425516486168,0.1300884634256363,0.046601422131061554],[-0.06522779911756516,-0.10683882236480713,-0.07364401966333389],[-0.08452621847391129,-0.16974066197872162,-0.20125538110733032]],[[-0.035510674118995667,0.0810341015458107,0.03748495131731033],[-0.004785999655723572,-0.05797300115227699,-0.05887097120285034],[-0.086195208132267,-0.03136575222015381,0.03249559551477432]],[[-0.055935464799404144,0.08649282902479172,-0.012340106070041656],[-0.059831563383340836,0.029933379963040352,0.0892685130238533],[0.11358444392681122,-0.16524426639080048,-0.14384883642196655]],[[-0.03665034472942352,-0.06228220462799072,0.07023342698812485],[-0.04375369846820831,-0.019289925694465637,-0.09572508931159973],[0.06440059095621109,0.07290343195199966,0.03506904095411301]]],[[[0.05899834260344505,-0.19600999355316162,-0.41856175661087036],[0.1860007643699646,0.14228956401348114,0.15636232495307922],[0.1486348658800125,0.01651250384747982,-0.05655212327837944]],[[-0.057019658386707306,-0.38162973523139954,-0.4528464078903198],[0.22460590302944183,-0.008811225183308125,-0.01042869035154581],[0.1516849845647812,-0.09474284946918488,-0.13879120349884033]],[[0.0038885658141225576,0.03354378789663315,0.029925301671028137],[0.043511394411325455,-0.14130543172359467,-0.06058827415108681],[-0.09471864253282547,-0.04412097483873367,0.019703209400177002]],[[-0.045303188264369965,0.06689506024122238,-0.23376598954200745],[0.17858465015888214,0.18892629444599152,0.1655624955892563],[0.012299681082367897,0.11922357976436615,-0.11828911304473877]],[[0.09166498482227325,0.035770658403635025,-0.16708622872829437],[0.12105163931846619,0.05608632415533066,-0.05640828609466553],[0.17191658914089203,-0.06653808057308197,-0.016943523660302162]],[[0.0719979926943779,0.09100063890218735,-0.02269752323627472],[-0.07906252890825272,0.021634303033351898,0.05315733700990677],[-0.09577362984418869,-0.021841511130332947,-0.05768262967467308]],[[-0.298582524061203,-0.39706361293792725,-0.5596127510070801],[-0.10052350908517838,-0.0823417380452156,-0.19151970744132996],[0.24780109524726868,0.15817376971244812,0.048232849687337875]],[[0.10250286012887955,-0.06633865833282471,-0.32883739471435547],[0.1598222553730011,0.06693635880947113,0.02848021313548088],[0.12838442623615265,-0.008565066382288933,-0.2019905000925064]],[[0.06905088573694229,0.09468312561511993,-0.16308331489562988],[0.07000735402107239,0.06711114943027496,0.15034548938274384],[-0.05105476826429367,0.04006878286600113,-0.20045746862888336]],[[0.006859702989459038,0.08971066027879715,0.04433306306600571],[-0.0841146856546402,0.03819199651479721,0.09134091436862946],[0.02531520277261734,0.06451164931058884,0.09486707299947739]],[[-0.08139397948980331,0.07194605469703674,-0.4523420035839081],[0.0031241208780556917,0.26102831959724426,-0.15471650660037994],[0.08673430234193802,0.15075333416461945,-0.3000301122665405]],[[-0.09496235102415085,-0.07425099611282349,-0.0237962007522583],[0.06494008749723434,0.016106367111206055,-0.07318929582834244],[-0.07719403505325317,0.04786958545446396,-0.07157616317272186]]],[[[-0.3285205066204071,-0.10740945488214493,-0.07253463566303253],[-0.14485879242420197,-0.04802044481039047,-0.04894063249230385],[-0.1858135610818863,-0.10215175151824951,-0.06804900616407394]],[[-0.22830547392368317,0.1342764049768448,0.2532658278942108],[-0.12155818939208984,0.2576833963394165,0.24780434370040894],[0.2611212730407715,0.2921556234359741,0.17898064851760864]],[[-0.09886065125465393,-0.004611083772033453,-0.0020560664124786854],[-0.02854686789214611,-0.14730778336524963,-0.04482711851596832],[-0.04715549200773239,-0.1384284645318985,-0.140733003616333]],[[-0.11082043498754501,0.026047764346003532,0.060994964092969894],[0.032485175877809525,0.04538369178771973,0.01077443640679121],[0.05732092261314392,0.14706961810588837,0.08804778754711151]],[[-0.20832884311676025,-0.04805675521492958,0.023997167125344276],[-0.06636475771665573,0.1448746919631958,0.16481085121631622],[0.1576368361711502,-0.0023446627892553806,0.08919936418533325]],[[-0.06786676496267319,0.036033131182193756,0.08142999559640884],[0.0013512298464775085,0.08754641562700272,-0.08198869228363037],[-0.03675404191017151,0.056123532354831696,-0.020964346826076508]],[[-0.0772038996219635,-0.11372500658035278,0.35328271985054016],[0.09357327222824097,0.3779168725013733,0.33258986473083496],[0.07288070768117905,0.5494839549064636,0.4121575355529785]],[[-0.3373364210128784,-0.19866256415843964,-0.012626801617443562],[-0.11483105272054672,0.008251425810158253,0.004543067421764135],[-0.23255228996276855,-0.13902345299720764,-0.0856178030371666]],[[-0.1875925362110138,0.0006312797777354717,-0.05263324826955795],[-0.06845343858003616,0.2151126116514206,0.1110217273235321],[0.10970722883939743,-0.045998383313417435,-0.10709084570407867]],[[0.03536660224199295,-0.06441355496644974,-0.06290270388126373],[-0.004647634923458099,-0.03519560024142265,-0.07213587313890457],[0.057076744735240936,0.07772012054920197,0.015535161830484867]],[[-0.22518248856067657,-0.29336315393447876,0.018226422369480133],[-0.254464328289032,0.08840973675251007,0.11676077544689178],[-0.12802810966968536,0.2673662006855011,-0.013083982281386852]],[[0.060815952718257904,-0.03733097016811371,0.00147276371717453],[-0.019015595316886902,0.011666223406791687,-0.029079057276248932],[0.0699678286910057,-0.002501577138900757,0.0751132145524025]]],[[[0.20611916482448578,-0.08441341668367386,-0.33366408944129944],[0.20790116488933563,0.0042446027509868145,-0.3614169955253601],[0.016558868810534477,-0.02519628219306469,0.05980433151125908]],[[0.2424105703830719,0.011494329199194908,-0.29355189204216003],[0.023305406793951988,-0.09526482224464417,-0.2389572411775589],[-0.2224220633506775,-0.1417151242494583,0.21618375182151794]],[[-0.027323581278324127,-0.09224026650190353,0.06145153194665909],[-0.07774079591035843,-0.06536870449781418,-0.028629925101995468],[0.10879561305046082,0.10098211467266083,0.019316771999001503]],[[0.16838601231575012,0.009846273809671402,-0.30054542422294617],[-0.0346088781952858,-0.05632225424051285,-0.24025169014930725],[-0.20161332190036774,-0.049531951546669006,0.1730634719133377]],[[0.20204906165599823,-0.03881623595952988,-0.2604406476020813],[0.08167580515146255,-0.16074109077453613,-0.2294878214597702],[-0.08841479569673538,-0.11157774180173874,0.1888452172279358]],[[0.09360604733228683,0.028781436383724213,0.03311658650636673],[0.022159062325954437,0.0015069693326950073,-0.006998680531978607],[0.001322530210018158,0.035932816565036774,0.08946723490953445]],[[0.24982017278671265,0.0939670130610466,-0.23460635542869568],[0.16351649165153503,-0.1663052886724472,-0.23527228832244873],[-0.05231509730219841,-0.2930046617984772,-0.28598564863204956]],[[0.09956428408622742,-0.02042173594236374,-0.24063056707382202],[0.1728052794933319,-0.1013762503862381,-0.19376437366008759],[-0.10339362919330597,0.01003995630890131,0.0850730687379837]],[[0.22623738646507263,-0.163359597325325,-0.14479611814022064],[0.0022022940684109926,-0.08233694732189178,-0.06628280133008957],[-0.19871963560581207,-0.016300702467560768,0.25073060393333435]],[[-0.08375755697488785,0.03702586144208908,0.018165268003940582],[0.021213939413428307,0.014048032462596893,0.026320531964302063],[-0.04629067704081535,-0.012311138212680817,0.09142410755157471]],[[0.3756895363330841,0.15034841001033783,-0.22585290670394897],[0.28049924969673157,-0.03280971571803093,-0.13039752840995789],[-0.036437295377254486,-0.233756422996521,-0.04416705295443535]],[[0.017123617231845856,0.09055043011903763,0.009143225848674774],[0.05573008209466934,0.07469195872545242,0.07768356055021286],[-0.0332314595580101,-0.021521374583244324,0.046374477446079254]]],[[[0.2465292066335678,0.2198278307914734,-0.3514847755432129],[-0.13675346970558167,0.29667213559150696,0.23565933108329773],[-0.06875701248645782,0.007197817787528038,0.43074819445610046]],[[0.2076183557510376,-0.06465340405702591,-0.5313776731491089],[-0.15900388360023499,-0.12017802149057388,-0.20439571142196655],[-0.2656691372394562,-0.1902070939540863,-0.11729444563388824]],[[-0.057743094861507416,-0.20682726800441742,0.011748352088034153],[0.048514146357774734,0.14439332485198975,-0.1667424738407135],[-0.07068948447704315,0.12007950991392136,0.09299404174089432]],[[0.09720893949270248,0.14957936108112335,-0.22841891646385193],[-0.13924509286880493,0.16961270570755005,0.12688182294368744],[-0.027088530361652374,-0.2271214723587036,0.11503073573112488]],[[0.15881730616092682,0.10006432235240936,-0.1414443701505661],[0.0747639536857605,0.02636435255408287,0.06046941503882408],[-0.18217627704143524,-0.13914763927459717,0.07797862589359283]],[[-0.08470083028078079,0.0671553835272789,0.011144287884235382],[-0.05186126381158829,0.05028519779443741,-0.09107007086277008],[-0.03721977397799492,-0.01874644309282303,-0.0817672610282898]],[[-0.007876608520746231,-0.24995975196361542,-0.3847121000289917],[0.043282650411129,-0.1842273473739624,-0.48189133405685425],[-0.18407751619815826,-0.17788158357143402,-0.12322567403316498]],[[0.2515256404876709,0.2567634582519531,-0.17622186243534088],[-0.22900430858135223,0.2725026607513428,0.26331600546836853],[0.01175179984420538,-0.37692463397979736,0.1405184417963028]],[[0.02455209754407406,0.09242437779903412,-0.027449792250990868],[-0.1839035600423813,-0.04893054813146591,0.2118314504623413],[0.03140872344374657,-0.28485122323036194,0.07415365427732468]],[[0.07692937552928925,-0.026298942044377327,-0.03950725123286247],[-0.08701013773679733,-0.04961918294429779,-0.08425835520029068],[-0.022023074328899384,0.019635245203971863,-0.09015090763568878]],[[0.06421034783124924,0.16367888450622559,-0.18569502234458923],[-0.1449168175458908,-0.15648049116134644,0.023499175906181335],[-0.04148927330970764,-0.3860791325569153,-0.08273306488990784]],[[-0.05378963053226471,0.07979720085859299,0.006208658218383789],[0.019343331456184387,0.07506821304559708,-0.015854574739933014],[-0.05478508770465851,-0.015562884509563446,0.07804364711046219]]],[[[-0.17693357169628143,-0.013137237168848515,-0.20565560460090637],[0.016361793503165245,0.08535755425691605,-0.1370021253824234],[-0.008924733847379684,-0.05544658377766609,0.04289241507649422]],[[0.03125461935997009,0.142228901386261,-0.03825632482767105],[0.3002099394798279,0.06024068221449852,-0.2706916034221649],[0.14315199851989746,-0.17278951406478882,-0.031200489029288292]],[[-0.11316078901290894,-0.19781765341758728,0.020361710339784622],[-0.10834842175245285,-0.12283975630998611,0.0021072616800665855],[-0.11997995525598526,0.09677677601575851,-0.10915812104940414]],[[-0.05586647242307663,-0.0939885824918747,-0.16789060831069946],[0.06899788230657578,0.06693130731582642,-0.148254856467247],[0.05746638774871826,-0.11760485172271729,0.004507140722125769]],[[0.11855686455965042,0.15162236988544464,-0.14413830637931824],[0.1809701919555664,0.06914487481117249,-0.18725989758968353],[-0.04253079742193222,-0.2021024078130722,-0.03318215534090996]],[[-0.07799513638019562,0.040647827088832855,0.030387647449970245],[-0.08360052853822708,0.02622140944004059,-0.00782603770494461],[0.043957315385341644,0.05521293729543686,-0.09566165506839752]],[[-0.022542765364050865,0.2688981294631958,0.07502217590808868],[0.08376006782054901,0.11071445047855377,-0.1593727320432663],[0.08779878914356232,-0.21958644688129425,-0.18453103303909302]],[[0.012553011998534203,0.016083577647805214,-0.0518161803483963],[0.054123133420944214,0.03440427780151367,-0.19695167243480682],[-0.05932578817009926,0.029163556173443794,-0.07862480729818344]],[[-0.08357194066047668,0.09831862151622772,-0.08068113774061203],[0.039525989443063736,-0.17359937727451324,-0.2167302370071411],[-0.07237661629915237,-0.05831624194979668,-0.001368196913972497]],[[0.015073858201503754,0.031713344156742096,0.09132976084947586],[-0.06181427091360092,-0.043687306344509125,0.06730624288320541],[-0.06584098935127258,-0.05305970087647438,0.07024342566728592]],[[-0.07464021444320679,0.25138378143310547,-0.004186609294265509],[0.14570049941539764,0.2607666552066803,-0.18228860199451447],[0.17178359627723694,-0.050974056124687195,-0.2293119579553604]],[[0.09345153719186783,-0.04807504639029503,-0.023107096552848816],[-0.02603563666343689,-0.06270590424537659,-0.09442222863435745],[0.05425664037466049,0.02556450664997101,-0.0901244580745697]]],[[[0.1942332684993744,0.22097884118556976,-0.15351338684558868],[0.1851893961429596,0.24117253720760345,-0.13605040311813354],[-0.14834535121917725,0.2806260883808136,-0.09021323174238205]],[[0.05552375316619873,-0.01962670125067234,-0.354360431432724],[0.024101708084344864,0.07391469180583954,-0.38705891370773315],[-0.04272337630391121,0.10459727793931961,-0.37139445543289185]],[[0.09866102039813995,-0.09300258755683899,-0.016821572557091713],[0.1671551764011383,-0.1945531666278839,0.0243456419557333],[0.09814763814210892,-0.19562427699565887,0.023843256756663322]],[[-0.06463122367858887,0.043787866830825806,-0.14939887821674347],[-0.1209910437464714,0.2718065083026886,-0.05773213505744934],[-0.16979680955410004,0.00448723416775465,0.024192053824663162]],[[0.037134699523448944,-0.012136717326939106,-0.1471017450094223],[0.07243381440639496,0.26781922578811646,-0.20645897090435028],[-0.17673857510089874,0.18120722472667694,-0.08893744647502899]],[[0.036995865404605865,0.052815549075603485,-0.021819382905960083],[0.053459711372852325,0.07094591110944748,-0.025136053562164307],[0.06846000999212265,0.04701358824968338,0.08487557619810104]],[[-0.3853880763053894,-0.2026146799325943,-0.20688943564891815],[-0.2934268116950989,0.038171470165252686,-0.356222927570343],[-0.4388550817966461,-0.042968492954969406,-0.14340715110301971]],[[0.23957981169223785,0.18171654641628265,-0.16380813717842102],[-0.06653979420661926,0.4271591305732727,-0.028008224442601204],[-0.2695431709289551,0.3645966947078705,0.035321298986673355]],[[-0.021777959540486336,0.12677329778671265,-0.22204788029193878],[-0.26681411266326904,0.23177723586559296,-0.04976256936788559],[-0.33360305428504944,0.06454591453075409,0.020180663093924522]],[[0.08821868151426315,0.03355727717280388,-0.03790954127907753],[-0.09010375291109085,0.03416017070412636,-0.04767545685172081],[0.048966653645038605,0.0643249973654747,0.03711596876382828]],[[-0.07880722731351852,0.34223273396492004,0.029059140011668205],[-0.4361802935600281,0.4617738127708435,0.11756934970617294],[-0.4651235044002533,0.35675549507141113,0.28123950958251953]],[[0.029074527323246002,0.00603175163269043,-0.08094123005867004],[-0.009988553822040558,0.09229197353124619,0.024504557251930237],[0.008238598704338074,-0.019981227815151215,-0.033561594784259796]]],[[[0.24427646398544312,0.29831668734550476,0.07619979232549667],[-0.14272145926952362,0.2659410238265991,0.3958945870399475],[-0.14715884625911713,-0.09612933546304703,0.1447032243013382]],[[0.08516018092632294,0.10591293126344681,-0.20033980906009674],[-0.26826560497283936,0.013013480231165886,-0.05528053268790245],[-0.35746243596076965,-0.25361910462379456,-0.14617405831813812]],[[0.08702792227268219,3.7717956729466096e-05,-0.08627433329820633],[-0.035569705069065094,0.005109003279358149,-0.06987369060516357],[0.08150194585323334,0.06478691846132278,0.15204675495624542]],[[0.053837601095438004,0.274410605430603,0.1631055474281311],[-0.24325421452522278,0.058273620903491974,0.28288742899894714],[-0.253842294216156,-0.26814454793930054,0.04271501675248146]],[[0.15870937705039978,0.2270534634590149,0.08401482552289963],[-0.12210597097873688,0.10428887605667114,0.1712433248758316],[-0.18242253363132477,-0.12214347720146179,-0.0949890986084938]],[[0.025851942598819733,-0.05815141275525093,0.003499343991279602],[0.0938170775771141,-0.029619544744491577,-0.03032933920621872],[0.05805381387472153,-0.03537745028734207,-0.008263558149337769]],[[-0.03161272034049034,-0.19112803041934967,-0.3378591239452362],[-0.18559978902339935,-0.0451652966439724,-0.13955295085906982],[-0.2780607342720032,-0.2611522674560547,-0.08903424441814423]],[[0.08344952762126923,0.302543044090271,0.20903997123241425],[-0.2502951920032501,0.07512031495571136,0.314375638961792],[-0.2063063085079193,-0.28507667779922485,-0.14730204641819]],[[-0.15721644461154938,0.32832270860671997,0.14459967613220215],[-0.214346244931221,0.04803438484668732,0.308694988489151],[-0.14849050343036652,-0.2634195387363434,-0.19271796941757202]],[[-0.03632601723074913,0.07949186861515045,0.009062453173100948],[-0.07196643948554993,0.0006025433540344238,-0.07506921887397766],[-0.021082840859889984,-0.026459485292434692,0.08329833298921585]],[[-0.1893898844718933,-0.01664864644408226,0.08745833486318588],[-0.22846628725528717,-0.0798373818397522,0.11655043065547943],[-0.17500907182693481,-0.25610533356666565,-0.085032619535923]],[[-0.013892002403736115,-0.0374620147049427,0.06026709824800491],[0.07842887192964554,0.09575929492712021,0.028507471084594727],[-0.0328025296330452,0.048871926963329315,0.08255671709775925]]],[[[-0.1951783001422882,-0.3670446276664734,-0.3150779604911804],[-0.22763381898403168,-0.14157022535800934,-0.16142676770687103],[0.05205000936985016,0.0780385285615921,0.21037353575229645]],[[-0.3691313564777374,-0.19837382435798645,-0.12711666524410248],[-0.19201917946338654,-0.13410262763500214,-0.05857206508517265],[0.17476585507392883,0.2008516490459442,0.2136433720588684]],[[0.04091944918036461,0.02271667681634426,-0.013874994590878487],[0.09356231242418289,-0.043295785784721375,-0.018245074898004532],[-0.17060233652591705,-0.06911962479352951,-0.046791840344667435]],[[-0.2577303647994995,-0.2742568552494049,-0.1716892123222351],[-0.0755946934223175,-0.011711148545145988,-0.08713404089212418],[0.29213112592697144,0.27139416337013245,0.34042274951934814]],[[-0.2799804210662842,-0.26626095175743103,-0.2305074781179428],[-0.13648906350135803,-0.024698685854673386,-0.0117311030626297],[0.2176942676305771,0.051142238080501556,0.19378797709941864]],[[-0.058202482759952545,0.048102132976055145,-0.04208681359887123],[-0.024129308760166168,-0.0834878608584404,0.0003178790211677551],[0.09136378020048141,0.04670553654432297,-0.051340002566576004]],[[-0.03778209909796715,-0.18121956288814545,-0.11877927929162979],[-0.08818519115447998,-0.1787894368171692,-0.04434537515044212],[0.18979480862617493,0.06978585571050644,0.1939970850944519]],[[-0.13414643704891205,-0.3094462752342224,-0.3759026527404785],[-0.058356158435344696,-0.08607050776481628,-0.03473195806145668],[0.14718987047672272,0.15068644285202026,0.21140724420547485]],[[-0.1783134490251541,-0.25628459453582764,-0.2230556309223175],[-0.08046963065862656,-0.11271106451749802,0.09999321401119232],[0.3817863166332245,0.2709537744522095,0.2072230875492096]],[[0.052044592797756195,-0.05956008657813072,0.057404033839702606],[0.0694315955042839,0.07446577399969101,0.06928696483373642],[0.060195811092853546,0.0014291615225374699,0.04325372353196144]],[[-0.17481985688209534,-0.2526317238807678,-0.23298850655555725],[-0.15512171387672424,-0.4391018748283386,-0.2279575616121292],[0.1363314688205719,-0.108195960521698,-0.07634686678647995]],[[-0.0865490585565567,0.0062658414244651794,0.06244804710149765],[0.08763691037893295,0.05615253001451492,-0.04987703636288643],[-0.09516751021146774,0.036499492824077606,0.053916238248348236]]],[[[-0.08143855631351471,0.15115471184253693,-0.0317133329808712],[-0.12579117715358734,-0.10150641202926636,-0.11310677975416183],[-0.016219163313508034,0.08768636733293533,-0.17401698231697083]],[[0.16400977969169617,0.07594779133796692,-0.028945086523890495],[-0.090161994099617,0.0118936188519001,-0.15922318398952484],[0.14061830937862396,0.042366594076156616,-0.0362626351416111]],[[0.09097688645124435,-0.16381365060806274,-0.029026353731751442],[0.14987297356128693,-0.05780945345759392,0.040413748472929],[-0.06839651614427567,0.018351679667830467,0.07455680519342422]],[[0.03318106010556221,0.015898553654551506,-0.17528758943080902],[-0.1198689192533493,-0.07689270377159119,-0.040808048099279404],[-0.05976337566971779,0.12313680350780487,0.0527239590883255]],[[0.10261008143424988,0.1624123454093933,-0.15839026868343353],[0.05624440312385559,-0.005456007085740566,-0.19873811304569244],[0.14718756079673767,0.02006162703037262,-0.08757449686527252]],[[0.08807281404733658,-0.06670326739549637,-0.06807825714349747],[0.015647858381271362,-0.012880101799964905,0.02216465026140213],[-0.0807044580578804,0.002877764403820038,-0.0427970252931118]],[[-0.08314777165651321,0.1464489996433258,0.07111162692308426],[-0.19639623165130615,-0.07321318984031677,-0.03171128034591675],[-0.14615565538406372,0.1069636270403862,-0.1477004438638687]],[[-0.01269072201102972,0.24068397283554077,-0.0416298545897007],[-0.15315930545330048,0.1357327699661255,-0.17754629254341125],[0.05475558713078499,0.18281367421150208,-0.020035764202475548]],[[-0.21258780360221863,0.12823618948459625,-0.13246768712997437],[-0.21089638769626617,-0.03836837410926819,-0.088597372174263],[-0.02957770600914955,0.10366643965244293,-0.047653816640377045]],[[0.007589317858219147,0.09454751014709473,0.05590786784887314],[0.053835026919841766,0.03851383179426193,0.07449562102556229],[-0.004641823470592499,0.007651068270206451,0.019802531227469444]],[[-0.1881392002105713,0.2025245726108551,0.08253267407417297],[-0.22560474276542664,0.14390240609645844,-0.1170671209692955],[-0.03451437130570412,0.2631126642227173,-0.15564797818660736]],[[0.07706285268068314,0.07597561925649643,-0.0738525390625],[-0.07430750131607056,-0.07785326987504959,-0.052733272314071655],[-0.03745812550187111,-0.007242806255817413,-0.023401178419589996]]],[[[-0.20392954349517822,-0.10471854358911514,-0.036802344024181366],[0.01752857118844986,-0.07316407561302185,-0.168055921792984],[0.0028439476154744625,-0.086070716381073,-0.07792335748672485]],[[-0.08169358223676682,0.20881566405296326,0.12311311066150665],[0.11683294922113419,0.16507470607757568,-0.021870102733373642],[0.18015286326408386,0.058344852179288864,-0.09867294877767563]],[[0.04348771646618843,-0.10293964296579361,-0.17361930012702942],[-0.011984206736087799,-0.05622231960296631,-0.16740360856056213],[-0.0434800386428833,-0.15209700167179108,0.040335290133953094]],[[-0.0008863170514814556,0.025337932631373405,-0.05081041902303696],[0.07800939679145813,0.05033699423074722,-0.03273313492536545],[0.04913816973567009,0.036065854132175446,-0.18147529661655426]],[[-0.11468715965747833,0.0630548968911171,0.0917695090174675],[0.0932614803314209,-0.0041888197883963585,-0.018809031695127487],[0.07029599696397781,-0.0352194719016552,-0.028609570115804672]],[[0.010525248944759369,-0.08893407136201859,-0.010424621403217316],[-0.0436435341835022,0.009350299835205078,-0.011182881891727448],[-0.09544891119003296,-0.017534643411636353,-0.009216368198394775]],[[-0.18735454976558685,0.243548184633255,0.274141788482666],[0.039045583456754684,0.16582578420639038,0.021203044801950455],[0.07685951888561249,0.12345192581415176,-0.14343906939029694]],[[-0.19037458300590515,-0.004776875954121351,0.0511360727250576],[-0.08226826041936874,0.05878559499979019,-0.09711731970310211],[-0.10242625325918198,-0.029884353280067444,-0.08351676166057587]],[[-0.1279965341091156,-0.011945671401917934,-0.08850211650133133],[0.054296888411045074,0.06783591210842133,-0.008360582403838634],[-0.07249779254198074,-0.08985608071088791,-0.23152939975261688]],[[-0.024044081568717957,-0.00918637216091156,-0.05354790389537811],[-0.07107368111610413,0.06499593704938889,0.06530267745256424],[-0.08739045262336731,0.03061995655298233,0.03914455324411392]],[[-0.15308788418769836,0.046938490122556686,0.25466930866241455],[-0.16301646828651428,0.14437557756900787,0.13318507373332977],[-0.0545416958630085,-0.013467379845678806,-0.048262178897857666]],[[0.052542515099048615,-0.04780586063861847,0.010597698390483856],[-0.00013969093561172485,0.024355299770832062,-0.05170648917555809],[0.05427467077970505,0.06399055570363998,-0.06676654517650604]]],[[[0.33189696073532104,-0.13670630753040314,-0.029752951115369797],[0.28989556431770325,0.20839039981365204,-0.2618354260921478],[-0.13017725944519043,0.1535397469997406,0.22104142606258392]],[[0.03578118607401848,-0.29953742027282715,-0.14293894171714783],[-0.17865042388439178,-0.10068262368440628,-0.20645391941070557],[-0.2495076060295105,-0.15512850880622864,0.0009083517943508923]],[[-0.09422703087329865,0.1060793325304985,-0.0681990310549736],[0.15401357412338257,-0.1315007209777832,0.047048911452293396],[0.14370165765285492,0.17538416385650635,-0.17863203585147858]],[[0.19652803242206573,0.013187738135457039,-0.15732359886169434],[0.07214432209730148,-0.010323705151677132,-0.06131695955991745],[-0.297341912984848,0.05505115166306496,0.16619066894054413]],[[0.11552471667528152,-0.12505128979682922,-0.16281212866306305],[0.0526462160050869,-0.05892447754740715,-0.06894949078559875],[-0.14290334284305573,0.0033378172665834427,0.1676923632621765]],[[0.0062020644545555115,0.06755619496107101,-0.0085458904504776],[-0.060731325298547745,0.06798797100782394,0.013437710702419281],[-0.02755867689847946,-0.06342219561338425,0.02255408465862274]],[[0.02036425843834877,-0.19280458986759186,-0.14976809918880463],[-0.23077569901943207,-0.2894124686717987,-0.264154314994812],[-0.24948373436927795,-0.11867298930883408,-0.17273636162281036]],[[0.4053235352039337,-0.038976747542619705,-0.3889942169189453],[0.14297230541706085,0.23180410265922546,0.05230547487735748],[-0.34317514300346375,0.18753047287464142,0.34331032633781433]],[[0.2273142784833908,-0.09120514988899231,-0.08298114687204361],[-0.1340918093919754,0.15022678673267365,0.012534244917333126],[-0.43120071291923523,0.013166999444365501,0.1737855225801468]],[[-0.08642888814210892,-0.034885257482528687,0.009921304881572723],[0.07494454830884933,-0.029582364484667778,0.05715380236506462],[0.012050122022628784,0.0032435432076454163,0.018412180244922638]],[[0.16134946048259735,-0.07805770635604858,-0.29479917883872986],[-0.2620338797569275,-0.0036521172150969505,0.04415149986743927],[-0.48765429854393005,-0.2866576910018921,0.11856748908758163]],[[-0.011085450649261475,-0.05311762914061546,0.004623711109161377],[-0.013506196439266205,0.027519941329956055,0.00434623658657074],[-0.048051875084638596,-0.03312873840332031,-0.0011090636253356934]]]],"biases":[-0.0715024545788765,0.02197074331343174,-0.00385301117785275,-0.00825030729174614,-0.02706064097583294,0.021930448710918427,-0.06215823441743851,-0.08506200462579727,0.02220293879508972,-0.06008768081665039,-0.03377440944314003,-0.06739271432161331]}],"dense1":{"type":"fully_connected","activation":"relu","weights":[[-0.017485829070210457,0.027394069358706474,-0.0026354955043643713,-0.025970079004764557,-0.004103458486497402,-0.0755617544054985,0.008545278571546078,0.055820487439632416,0.05176635831594467,0.02013208344578743,0.017058508470654488,0.09391915798187256,0.03611951693892479,0.004753332119435072,0.09246307611465454,-0.0072035701014101505,-0.01711437851190567,0.030567800626158714,0.014497799798846245,0.04562816396355629,0.013357053510844707,0.011738050729036331,0.026523206382989883,0.023114370182156563,0.04087086021900177,-0.056507714092731476,-0.028099916875362396,0.03879797086119652,-0.08286327868700027,0.006991241127252579,-0.032485414296388626,-0.05400688573718071,-0.04412837326526642,-0.01752963475883007,-0.04021844267845154,-0.02066928520798683,-0.03528943657875061,-0.08952070772647858,0.019559338688850403,-0.07121303677558899,0.046265967190265656,0.004986979067325592,0.011337187141180038,-0.03288576006889343,0.001681214664131403,-0.06527338176965714,-0.00330240186303854,-0.011984691023826599,0.02974962629377842,-0.042052969336509705,-0.028860431164503098,0.023614389821887016,0.03294578194618225,0.031759243458509445,-0.05818425863981247,-0.033729054033756256,0.011926894076168537,-0.004369664937257767,-0.06869132816791534,-0.04259740933775902,0.01362538430839777,-0.047367438673973083,-0.031783755868673325,0.0008689985261298716],[-0.004090596456080675,0.0027516596019268036,0.028377778828144073,-0.00875876098871231,0.07209279388189316,0.051503486931324005,-0.03707604110240936,0.04551713168621063,-0.09304087609052658,-0.016356423497200012,0.07159095257520676,-0.09845045208930969,-0.008771037682890892,0.07920801639556885,-0.067655548453331,0.0013952702283859253,0.03579152002930641,0.0019408687949180603,0.09779425710439682,0.03744341433048248,-0.006222423166036606,0.035369373857975006,-0.0009095082059502602,0.010370880365371704,-0.03515823930501938,0.06746623665094376,-0.03541066125035286,-0.13723458349704742,0.030223233625292778,0.03506191819906235,-0.0172396469861269,-0.017843453213572502,-0.01017555221915245,-0.04807840287685394,0.02369026653468609,-0.004151086322963238,-0.022629834711551666,-0.10910139977931976,-0.05113592743873596,-0.02128440886735916,-0.009497533552348614,0.02233685553073883,-0.012456627562642097,0.012445703148841858,0.06284701079130173,-0.009319116361439228,-0.004293486475944519,-0.024216528981924057,0.03486169874668121,-0.048231836408376694,-0.03484058380126953,-0.05326884984970093,-0.03738449886441231,0.05085830017924309,-0.03073393553495407,-0.033310651779174805,0.022836219519376755,-0.07838176935911179,0.006357249803841114,-0.0019263364374637604,0.055998850613832474,-0.05449870973825455,-0.024593377485871315,0.018100079149007797],[0.07914267480373383,0.024279654026031494,-0.055382680147886276,-0.01243560016155243,-0.08742969483137131,-0.06792577356100082,0.06246327608823776,-0.04417051002383232,-0.023926662281155586,-0.02184288762509823,-0.1533311903476715,-0.14471663534641266,-0.10280895978212357,0.05562857165932655,0.002969956025481224,-0.015270951204001904,0.038866959512233734,0.013295561075210571,-0.1119043156504631,-0.03747846558690071,-0.04343694821000099,-0.1147194355726242,-0.02038889192044735,0.02863582968711853,-0.0431266650557518,-0.0994800552725792,0.020859869197010994,-0.08887634426355362,-0.03304353356361389,0.007932057604193687,-0.027857204899191856,-0.024285390973091125,0.02633202075958252,-0.031137041747570038,0.018485501408576965,0.06314161419868469,-0.0435706190764904,0.06910428404808044,0.06095333397388458,0.0832613855600357,-0.01057826355099678,-0.0346849262714386,-0.004096833523362875,-0.015406343154609203,-0.13803723454475403,0.08897342532873154,-0.03869263082742691,0.03072778880596161,-0.019971851259469986,-0.143948033452034,-0.023645035922527313,0.038316577672958374,-0.008388295769691467,-0.018088093027472496,0.08952145278453827,-0.018324272707104683,-0.04643024131655693,0.02525268867611885,-0.06204541027545929,0.02006545290350914,-0.009482363238930702,0.11277444660663605,0.020707080140709877,-0.04476742818951607],[0.0356416180729866,0.0056966757401824,-0.08777111768722534,0.012613187544047832,-0.09544961899518967,-0.08655023574829102,0.10370014607906342,0.010847127065062523,0.008846662938594818,-0.04179520532488823,-0.14540749788284302,0.003796045435592532,0.11071839928627014,0.036438170820474625,0.28216925263404846,-0.06138552352786064,0.0669018104672432,-0.0010124013060703874,-0.11489848047494888,-0.0028390828520059586,-0.047592129558324814,-0.11213945597410202,-0.05284624919295311,0.03157927095890045,-0.038926661014556885,0.05799585580825806,0.021665100008249283,0.12138105183839798,-0.07581818103790283,-0.01117254700511694,-0.016864022240042686,-0.0709085687994957,-0.014424587599933147,-0.0408729650080204,-0.0697673037648201,-0.016068704426288605,0.0024188628885895014,-0.0015620664926245809,0.14223027229309082,0.06851185113191605,-0.011986861936748028,-0.025547895580530167,-0.010028153657913208,-0.018141593784093857,-0.11260376870632172,0.03890238329768181,-0.01888098381459713,0.008515805006027222,-0.04825221374630928,-0.12324517965316772,0.013459090143442154,0.054800570011138916,-0.00989050604403019,0.09440834075212479,0.03204686939716339,0.027870729565620422,0.021105051040649414,0.022106992080807686,-0.0833292230963707,-0.002471945947036147,-0.010689377784729004,0.05117347091436386,-0.01546791847795248,0.0006186385871842504],[0.06132395938038826,-0.011825504712760448,-0.050230808556079865,-0.04226438328623772,0.005027500446885824,-0.06455069035291672,0.046764977276325226,0.0917024314403534,0.0672992616891861,-0.010574033483862877,-0.08744075894355774,0.048062775284051895,0.06496099382638931,0.06321408599615097,0.17117217183113098,-0.07740048319101334,0.08111602067947388,-0.008752647787332535,-0.06569155305624008,0.07341252267360687,-0.02148103155195713,0.002023355569690466,-0.05595484375953674,-0.03547992184758186,-0.002596487756818533,-0.12051237374544144,-0.0013198277447372675,0.11610990762710571,-0.04821229726076126,-0.0078037879429757595,-0.046415869146585464,-0.03676065057516098,0.0202323067933321,0.07934915274381638,-0.03437553718686104,-0.04726013168692589,-0.01782269962131977,-0.024480106309056282,0.12072216719388962,0.029376953840255737,0.02203536033630371,-0.048446137458086014,-0.007457917556166649,0.00389726459980011,-0.025565562769770622,-0.01957874372601509,-0.03873143717646599,-0.042019519954919815,0.028651274740695953,-0.10230639576911926,0.015828143805265427,0.07178445160388947,-0.03000185638666153,0.08095186948776245,-0.013772808946669102,-0.03138056769967079,0.008260032162070274,-0.0029721418395638466,-0.031661976128816605,0.018094273284077644,0.09019088745117188,-0.02790895663201809,-0.029887793585658073,-0.03943401947617531],[0.024921966716647148,-0.009661600925028324,-0.0026423854287713766,-0.03592824563384056,-0.02455141395330429,0.029378741979599,0.061354633420705795,-0.034085698425769806,0.01060040295124054,-0.007845396175980568,-0.05822552368044853,0.11732149124145508,-0.04325512796640396,-0.024777257815003395,0.039471302181482315,-0.007028242573142052,-0.049065686762332916,0.02442416176199913,-0.03950377181172371,-0.049567434936761856,-0.0008993074879981577,0.00845839362591505,-0.01738189533352852,-0.036566112190485,-0.030424127355217934,-0.0732160210609436,-0.011107653379440308,0.09131478518247604,0.0129995783790946,-0.002344526583328843,0.025979625061154366,0.0029989422764629126,0.00036867577000521123,0.03879203274846077,-0.033527590334415436,0.022936861962080002,-0.03738286718726158,0.008465088903903961,0.024137141183018684,0.07189296185970306,-0.029132133349776268,0.012989570386707783,-0.047268934547901154,-0.037799861282110214,0.007233066484332085,0.033018507063388824,0.015826018527150154,-0.039477404206991196,-0.032161835581064224,-0.08884456753730774,0.025948256254196167,0.06945430487394333,0.00954432226717472,0.022793015465140343,-0.009916170500218868,0.031616128981113434,-0.04955793917179108,-0.013471662066876888,0.05843137577176094,0.019847819581627846,-0.04961412400007248,0.01986074633896351,-0.03237539157271385,-0.03647693246603012],[-0.17149260640144348,0.007598875556141138,0.11996110528707504,0.018371544778347015,0.3240033984184265,-0.14749044179916382,-0.18025833368301392,0.20900344848632812,0.034904882311820984,-0.045568276196718216,0.21869605779647827,-0.01914849318563938,0.09867800027132034,0.34104451537132263,0.0011435591150075197,-0.03701511025428772,0.024247610941529274,-0.03280659392476082,0.21968132257461548,0.31722959876060486,0.03366778790950775,0.1870609074831009,0.02141387015581131,0.019428342580795288,-0.047387924045324326,0.20189650356769562,0.0130959153175354,-0.05336287245154381,-0.10554271191358566,-0.042813148349523544,-0.04045061022043228,-0.17241665720939636,0.0007965438417159021,-0.11427585780620575,-0.04465832561254501,-0.2161252200603485,0.019421668723225594,-0.25204920768737793,0.11374393850564957,-0.25678759813308716,0.14129219949245453,0.02738269232213497,0.0317942313849926,-0.025065233930945396,0.21120110154151917,-0.29437801241874695,-0.03303247317671776,-0.019593095406889915,0.007824690081179142,0.06764920055866241,-0.03661319240927696,-0.0875246673822403,-0.035175345838069916,0.0961848795413971,-0.21216371655464172,0.02580757439136505,0.298642635345459,-0.11272276192903519,-0.03901144117116928,0.009678692556917667,0.3714240789413452,-0.22289614379405975,-0.03261583670973778,0.007912259548902512],[0.023078670725226402,0.00853760540485382,-0.0019025157671421766,0.002935986965894699,0.04720564931631088,-0.10520919412374496,-0.005867319647222757,0.04008205980062485,0.04929732158780098,-0.04396027326583862,0.022239917889237404,-0.000853316392749548,0.037214282900094986,0.12330479174852371,-0.0043849400244653225,-0.03124631941318512,0.036465954035520554,0.03231338411569595,-0.0379333533346653,0.11067990958690643,-0.022626835852861404,0.03372776135802269,-0.031487759202718735,0.023230068385601044,0.017886249348521233,-0.15416881442070007,0.03473217412829399,0.12085313349962234,-0.0638139471411705,-0.010883187875151634,-0.03076326474547386,-0.036403827369213104,-0.0027326499111950397,0.042276497930288315,-0.0670928880572319,-0.030003024265170097,0.015813935548067093,-0.040471337735652924,0.15457308292388916,-0.01051737554371357,0.04536472633481026,0.009564818814396858,-0.04142424836754799,-0.029791567474603653,-0.033733535557985306,-0.0026279555168002844,-0.0327116884291172,-0.021054646000266075,0.023133322596549988,-0.06929139047861099,0.01828717440366745,0.09969887137413025,0.012552107684314251,0.00563284894451499,-0.05429290235042572,-0.03711986169219017,0.05701326206326485,0.016188066452741623,-0.046529121696949005,0.013505848124623299,0.08821699768304825,-0.04600495472550392,0.029127690941095352,-0.000792108301538974],[0.0053971149027347565,-0.04248574748635292,-0.05977752432227135,-0.03899231553077698,-0.09930647164583206,-0.01438679825514555,0.08416195958852768,-0.012246559374034405,-0.04626593366265297,-0.04478202015161514,-0.0601658932864666,-0.09270302206277847,-0.03649075701832771,0.0771758109331131,0.02548295632004738,-0.05422479659318924,0.0565287210047245,-0.02785675600171089,-0.05868520587682724,-0.04394674673676491,-0.012760309502482414,-0.024913087487220764,0.006310401484370232,-0.04665162414312363,-0.023308128118515015,0.022782428190112114,0.020447473973035812,0.015724843367934227,-0.05596502497792244,0.011305184103548527,-0.01677434891462326,-0.02152576856315136,0.00400181207805872,-0.012538568116724491,-0.024260656908154488,-0.02910551428794861,0.0050000217743217945,0.0013820006279274821,0.052911512553691864,0.037568144500255585,-0.027949832379817963,-0.009888098575174809,-0.026122072711586952,0.002984515158459544,-0.040549226105213165,0.041086018085479736,-0.015810124576091766,-0.027836255729198456,-0.013669569976627827,-0.08422090858221054,-0.03340743109583855,-0.022532250732183456,0.009917670860886574,-0.011538082733750343,0.07752056419849396,-0.04275079071521759,0.012737412936985493,-0.012652062810957432,-0.10586956888437271,-0.04542997479438782,0.039647892117500305,0.06598182767629623,-0.013741005212068558,0.012652846053242683],[0.007046534679830074,0.020408442243933678,0.07662825286388397,-0.00930108968168497,-0.06001710146665573,0.1281699687242508,-0.008107976987957954,-0.0271097794175148,-0.046143293380737305,0.023682722821831703,-0.06083519756793976,-0.06352923065423965,-0.1296863853931427,-0.02720748633146286,-0.014166931621730328,-0.04430605098605156,-0.06872566044330597,-0.0464973971247673,0.003563894657418132,-0.02877720072865486,-0.029584089294075966,-0.03744125738739967,-0.043110333383083344,-0.03493940085172653,0.023387765511870384,-0.010726068168878555,-0.03425818681716919,0.10370171815156937,0.13285501301288605,-0.01566867157816887,-0.03291007876396179,0.10615619271993637,-0.005785008892416954,0.03594554588198662,0.05141497403383255,-0.028783133253455162,0.000950211426243186,-0.0744294747710228,-0.0470871701836586,0.05471590533852577,-0.06708696484565735,-0.0030283560045063496,-0.008747046813368797,-0.0036490680649876595,0.025599397718906403,0.03394423797726631,0.026518939062952995,-0.005221030209213495,0.027336742728948593,-0.0516844280064106,-0.02095707505941391,-0.00439388956874609,0.03506426513195038,-0.03271334618330002,0.059211187064647675,-0.016093231737613678,-0.04899140074849129,0.009438863955438137,0.07294068485498428,-0.03372897207736969,-0.07291048765182495,0.06387186795473099,-0.019277816638350487,-0.019347773864865303],[0.08360949903726578,-0.046419985592365265,0.004291587974876165,0.0007700148271396756,0.0003945351636502892,-0.04680642858147621,0.011244505643844604,0.04007459431886673,-0.0011727754026651382,0.017479533329606056,-0.06158730760216713,0.02856997214257717,0.03832387179136276,0.051543787121772766,0.029473455622792244,0.003915606997907162,-0.049287233501672745,-0.014361560344696045,-0.013128779828548431,-0.010228840634226799,0.01910618133842945,-0.0063945758156478405,-0.021098962053656578,-0.022321047261357307,0.007750153541564941,-0.0999382808804512,0.002176958601921797,-0.041450317949056625,-0.0631064772605896,0.005988486111164093,0.0035131387412548065,-0.00865606777369976,0.01911400631070137,-0.018997054547071457,-0.00016990458243526518,0.002458403119817376,-0.03250780701637268,-0.009752912446856499,0.06420672684907913,-0.035658299922943115,0.08230727165937424,-0.019887836650013924,-0.016739899292588234,0.013728379271924496,-0.009184014052152634,0.009765214286744595,-0.007787431590259075,-0.02289874479174614,0.01101523358374834,-0.05422927811741829,-0.023045090958476067,0.07399963587522507,-0.03508678451180458,0.01563348062336445,0.004736224189400673,0.027968555688858032,0.07370283454656601,0.047380078583955765,-0.024889355525374413,-0.0005808102432638407,0.0015915347030386329,0.03515772521495819,0.02393794246017933,0.010016991756856441],[0.05934640392661095,-0.03358085826039314,-0.06359254568815231,-0.0363556370139122,-0.0453195795416832,-0.07826163619756699,-0.0020268792286515236,0.01944667100906372,0.007041017524898052,-0.01675466075539589,-0.0858803391456604,-0.05444012209773064,0.057585205882787704,0.11143611371517181,0.015423689037561417,-0.08250834792852402,0.007844694890081882,-0.0030081721488386393,-0.034067440778017044,0.024302154779434204,0.024922078475356102,-0.04622294753789902,-0.022766048088669777,0.022699397057294846,-0.015410815365612507,0.09654451161623001,-0.010022535920143127,-0.004399243742227554,-0.06443589180707932,0.014179416932165623,-0.037757083773612976,-0.0586562305688858,-0.04463913291692734,-0.07726504653692245,-0.016367191448807716,0.012979263439774513,-0.04403221607208252,0.015054830349981785,0.15562695264816284,-0.04794502630829811,0.06826344132423401,0.022307302802801132,0.017117906361818314,-0.014670680277049541,-0.042794447392225266,0.026484599336981773,0.002590632066130638,0.029645342379808426,-0.00740898959338665,-0.021723026409745216,-0.018874814733862877,0.02364087849855423,-0.03978453204035759,0.09108790010213852,0.02675437368452549,0.021713247522711754,0.04589838162064552,-0.04976474866271019,-0.09174229204654694,-0.01400828454643488,0.04082098975777626,0.008463200181722641,0.01616055704653263,0.02351398579776287],[0.05386378988623619,-0.017957497388124466,0.030159031972289085,0.024035818874835968,-0.052586328238248825,-0.011906393803656101,0.0924026146531105,-0.02985873632133007,-0.02562408335506916,-0.019291892647743225,-0.12667448818683624,0.0016517937183380127,-0.11015742272138596,-0.039410728961229324,0.03477729484438896,-0.04237798601388931,-0.09513374418020248,-0.03318670019507408,-0.0976894423365593,-0.09311632812023163,0.02852882258594036,-0.05538485199213028,0.01804402470588684,0.031535886228084564,-0.015301501378417015,-0.20750027894973755,-0.037005163729190826,0.004707302898168564,0.013697887770831585,0.015159588307142258,-0.01166258193552494,0.030668053776025772,0.006576300133019686,0.037627194076776505,0.006256164982914925,0.07235652953386307,-0.04108047112822533,0.12251456081867218,-0.03704829141497612,0.08975119143724442,0.011551566421985626,-0.005863357335329056,-0.04122801497578621,-0.029774293303489685,-0.029391393065452576,0.044126156717538834,-0.042244940996170044,-0.040945377200841904,-0.039519134908914566,-0.03942713886499405,-0.001467641443014145,0.02337975986301899,0.015656355768442154,-0.02097114734351635,0.07278826832771301,0.036993592977523804,-0.044586848467588425,0.09199187159538269,-0.007780439220368862,0.008894028142094612,-0.04990449175238609,0.08608552813529968,-0.035190604627132416,-0.03267161548137665],[0.10643424838781357,0.030114874243736267,-0.09089004248380661,-0.008541565388441086,-0.04432322457432747,-0.14276055991649628,0.11591311544179916,-0.024403825402259827,-0.0008239414892159402,-0.03533736243844032,-0.09667309373617172,-0.0847109854221344,0.013180169276893139,0.1298305094242096,-0.07724080979824066,-0.018600860610604286,0.012850355356931686,-0.03118099644780159,-0.11852633208036423,-0.02061479166150093,0.018133055418729782,-0.10125547647476196,-0.016216345131397247,-0.02303145080804825,-0.0261031873524189,-0.15889014303684235,-0.020626520738005638,-0.006400845944881439,-0.09314771741628647,-0.0035987533628940582,-0.02259638160467148,-0.03097745217382908,0.035936012864112854,-0.013062115758657455,-0.026680145412683487,0.11740939319133759,0.03749820590019226,0.08029837161302567,0.10003634542226791,0.031322963535785675,-0.0005944909644313157,0.007095262408256531,-0.03893072158098221,-0.029429234564304352,-0.0713515356183052,0.029512790963053703,-0.01671113632619381,0.0026122964918613434,0.028681688010692596,-0.062301427125930786,0.030345797538757324,0.053606171160936356,0.013615073636174202,-0.021885531023144722,0.08733305335044861,0.017743639647960663,0.007812931202352047,0.05293507128953934,-0.10435251146554947,-0.012135619297623634,-0.025905167683959007,0.045031893998384476,-0.021200884133577347,-0.02238084003329277],[0.14165475964546204,0.010549426078796387,-0.06561852991580963,-0.011574489995837212,-0.12277577817440033,-0.007689961232244968,0.12016039341688156,-0.07938913255929947,0.10081934928894043,0.027362264692783356,-0.12118623405694962,0.045963138341903687,0.03872321546077728,0.01576859876513481,-0.08251117169857025,-0.050586286932229996,-0.04601291939616203,-0.04006117582321167,-0.13684430718421936,-0.03046564757823944,-0.027460716664791107,-0.06916093081235886,0.020516954362392426,-0.04210418835282326,0.003690924495458603,-0.13986939191818237,-0.03982716053724289,-0.009618600830435753,-0.01924814097583294,0.0062226951122283936,-0.029150964692234993,-0.00020838063210248947,-0.02163681574165821,0.021466821432113647,-0.010529004968702793,0.16071344912052155,0.014382448047399521,0.09200453013181686,0.09122771769762039,0.05481840670108795,-0.0005716800224035978,-0.01355850137770176,-0.0293621476739645,0.01676914468407631,-0.12371759861707687,0.10039480775594711,-0.022855177521705627,0.010933488607406616,-0.0025670521426945925,-0.08078213036060333,-0.03394525498151779,0.13537555932998657,-0.021944643929600716,-0.025920668616890907,0.05972372367978096,-0.02093685045838356,-0.05806265398859978,0.07661131769418716,-0.10284405946731567,-0.03389715775847435,-0.03671121969819069,0.0777931809425354,0.0249350443482399,0.03984957933425903],[0.10412304848432541,0.02498302236199379,-0.0988331139087677,-0.013458644039928913,-0.1823328137397766,-0.048997264355421066,0.19962166249752045,-0.008202149532735348,0.12116706371307373,-0.04133889824151993,-0.17164917290210724,0.04102114215493202,0.10007835924625397,-0.05549251288175583,0.01678990013897419,-0.05276678502559662,0.05121033638715744,-0.050579674541950226,-0.20756936073303223,-0.03673885017633438,0.02678990177810192,-0.21426257491111755,0.019333643838763237,-0.039307963103055954,-0.04128073528409004,0.03495209291577339,-0.015203766524791718,0.0761236622929573,0.04772428423166275,-0.03802245482802391,-0.0044553340412676334,-0.0031868857331573963,0.009737827815115452,0.06357892602682114,-0.021674400195479393,0.08847001940011978,-0.024335578083992004,0.023349236696958542,0.13673458993434906,0.07583750039339066,-0.06244136020541191,-0.011793132871389389,-0.048357974737882614,-0.0011956036323681474,-0.1858857125043869,0.05678291618824005,-0.014847527258098125,-0.016949661076068878,-0.03779974207282066,-0.1651916354894638,0.02126261405646801,0.07245662063360214,0.017454316839575768,0.021971313282847404,0.10957732051610947,0.01439808588474989,-0.09702986478805542,0.16600677371025085,-0.014352288097143173,0.02702312543988228,-0.023143315687775612,0.102757029235363,-0.020276518538594246,-0.03621811419725418],[0.0014981416752561927,0.02646435610949993,-0.06727471947669983,-0.035530369728803635,0.13944081962108612,-0.20251978933811188,-0.030464041978120804,0.2070760279893875,0.31581422686576843,-0.015470489859580994,0.10797418653964996,0.0977470725774765,0.2524056136608124,0.16337263584136963,0.06488007307052612,0.012890064157545567,0.10406973212957382,0.019900569692254066,0.025046467781066895,0.18953044712543488,0.0005084833828732371,0.0422898605465889,0.018632177263498306,-0.005938917398452759,-0.03390689194202423,-0.0837068036198616,0.0051436349749565125,0.09401196986436844,-0.16940271854400635,0.031483251601457596,-0.011765645816922188,-0.1950482279062271,-0.010505739599466324,-0.02725466527044773,-0.19486455619335175,-0.08528180420398712,-0.00423034792765975,-0.17403829097747803,0.27456381916999817,-0.13427497446537018,0.19619408249855042,0.015525354072451591,-0.009037462994456291,0.01121336966753006,0.009410413913428783,-0.1994950920343399,-0.022167932242155075,-0.03447091206908226,-0.016724564135074615,-0.03055274486541748,0.007445638999342918,0.058446552604436874,-0.0003305112477391958,0.17118412256240845,-0.15201261639595032,-0.004434121772646904,0.20501935482025146,0.05129546299576759,-0.1641194224357605,-0.014377649873495102,0.29080983996391296,-0.08619524538516998,-0.05196339637041092,0.02401040494441986],[0.07709374278783798,0.02852160669863224,-0.0581243559718132,-0.030635027214884758,-0.052969250828027725,0.030089257284998894,0.08436822891235352,-0.025614801794290543,-0.013955135829746723,0.021422985941171646,-0.11113155633211136,-0.011859997175633907,0.017422128468751907,-0.028378402814269066,0.017508354038000107,-0.032092656940221786,-0.0538879856467247,-0.011680815368890762,-0.01295765582472086,-0.0345364585518837,-0.042070213705301285,-0.048884183168411255,0.027880143374204636,0.03221050649881363,-0.04843787103891373,-0.1276075541973114,-0.008487691171467304,-0.0027344664558768272,0.040681879967451096,0.00445100013166666,-0.04637405648827553,0.0018401873530820012,0.00102447799872607,0.020651495084166527,-0.017730824649333954,0.013233981095254421,-0.005611469969153404,0.02703130804002285,0.02404152601957321,0.0181148461997509,-0.01350461132824421,-0.00863458402454853,-0.016598647460341454,-0.020433813333511353,-0.007651086896657944,0.011116351932287216,-0.0233504269272089,-0.04601489380002022,0.030570361763238907,-0.07412093877792358,-0.017133142799139023,0.05107859522104263,-0.032905686646699905,-0.01954420655965805,0.03788704425096512,0.0007667532190680504,-0.043016910552978516,0.03436169773340225,0.020854687318205833,-0.0170245710760355,-0.10198217630386353,0.06931367516517639,-0.03475239500403404,-0.0018793913768604398],[-0.05772247910499573,-0.01234036311507225,-0.03517770394682884,0.0029214827809482813,0.17017172276973724,-0.28165239095687866,-0.06396593153476715,0.20990973711013794,0.15666638314723969,0.020045891404151917,0.1012469232082367,-0.08722562342882156,0.2385781854391098,0.29831448197364807,-0.1781141459941864,-0.04574277251958847,0.08518470823764801,-0.010958627797663212,0.09768036007881165,0.2453916221857071,-0.02875632792711258,0.15059016644954681,-0.00833936594426632,0.027962712571024895,-0.04740818589925766,-0.0280646700412035,-0.009005912579596043,-0.08653051406145096,-0.2536768913269043,-0.03461051359772682,-0.0424577035009861,-0.27044469118118286,-0.030486011877655983,-0.07425329834222794,-0.08998913317918777,-0.08390657603740692,-0.007570358458906412,-0.13402791321277618,0.18413406610488892,-0.2265755534172058,0.18769794702529907,0.010332955047488213,0.025122549384832382,-0.001613684813492,0.1320132166147232,-0.23596130311489105,0.017652034759521484,-0.004607674200087786,0.009968343190848827,-0.0919468030333519,0.004027416929602623,0.015769483521580696,-0.018611785024404526,0.17992886900901794,-0.1994590163230896,-0.005430476274341345,0.275831401348114,-0.05298849940299988,-0.2608945965766907,0.013799838721752167,0.2765994966030121,-0.155947744846344,-0.019529182463884354,0.01710483990609646],[-0.09814160317182541,-0.0021812396589666605,0.01876724511384964,-0.022483645007014275,0.20143450796604156,-0.2649720013141632,-0.13328967988491058,0.22315268218517303,0.2751283347606659,-0.006092611234635115,0.18428488075733185,0.09161441028118134,0.17168201506137848,0.3393176794052124,0.043273985385894775,0.04671632871031761,0.1461534947156906,0.035216763615608215,0.13769061863422394,0.2624467611312866,0.003320450894534588,0.1549844890832901,-0.03639784827828407,0.025971882045269012,0.008026164025068283,-0.12169615924358368,0.02439691871404648,-0.01680717244744301,-0.2919463813304901,-0.04951057955622673,0.0037917925510555506,-0.24698825180530548,0.020768776535987854,-0.1460476517677307,-0.13772858679294586,-0.08410783857107162,0.030824175104498863,-0.1727963089942932,0.1831243932247162,-0.20591290295124054,0.270501047372818,-0.02517506293952465,0.02235517092049122,-0.03366374969482422,0.06703466922044754,-0.19009476900100708,0.02814430557191372,-0.03815055638551712,0.019062533974647522,0.09941187500953674,-0.04422975704073906,-0.03893601521849632,-0.0377177819609642,0.23994341492652893,-0.2178024798631668,-0.027633562684059143,0.3044375777244568,-0.09109345078468323,-0.19875329732894897,0.01151643693447113,0.30539670586586,-0.2015177458524704,-0.040644366294145584,0.02556963451206684],[0.07877621054649353,0.001274799695238471,-0.027312085032463074,-0.005916024558246136,-0.07769615948200226,-0.04584623500704765,0.11225290596485138,0.013248034752905369,0.0744006410241127,0.0009542184416204691,-0.12690655887126923,0.010449599474668503,0.0279412642121315,0.04311871528625488,-0.10881736874580383,-0.010854871943593025,-0.038763415068387985,-0.06501064449548721,-0.08949049562215805,-0.016923872753977776,-0.02846231870353222,-0.08322115242481232,0.023248864337801933,-0.021257445216178894,-0.037505630403757095,0.014100784435868263,-0.036652110517024994,-0.10182058811187744,-0.0601019486784935,-0.026407064869999886,0.004291296936571598,0.018665725365281105,-0.028146440163254738,-0.04964573681354523,-0.0006293570040725172,0.07419823855161667,0.025950748473405838,0.10109950602054596,0.11865589767694473,0.024841345846652985,-0.04966050758957863,0.02511286549270153,0.021024439483880997,-0.010264010168612003,-0.13323038816452026,0.028130099177360535,0.03073269873857498,0.031199384480714798,0.006514584645628929,-0.12532030045986176,-0.012564531527459621,0.028507050126791,-0.04439783841371536,0.022681213915348053,0.05869841203093529,0.008357329294085503,0.01553509570658207,-0.00047580880345776677,-0.054711099714040756,0.012441305443644524,0.025423986837267876,0.05417641997337341,-0.04088559001684189,-0.034914448857307434],[-0.026486163958907127,0.01603945717215538,0.05856716260313988,0.03473399579524994,0.0851057916879654,-0.11899028718471527,-0.019576461985707283,0.06762188673019409,0.026232970878481865,-0.0006512153777293861,-0.018748553469777107,-0.025565873831510544,0.09069694578647614,0.1408940851688385,-0.03197406232357025,-0.025103464722633362,0.0076628453098237514,0.016646694391965866,0.035502489656209946,0.05787162855267525,-0.006288629490882158,0.05273818597197533,-0.003404415212571621,-0.013983831740915775,-0.0122982207685709,0.06077098101377487,0.007054343819618225,-0.0255585964769125,-0.11049480736255646,-0.04697101190686226,0.029801396653056145,-0.10098125785589218,-0.02004438266158104,-0.06646936386823654,-0.03772163391113281,-0.06004783883690834,0.011919626034796238,-0.10857424885034561,0.05491287261247635,-0.07889509946107864,0.011040432378649712,-0.027001600712537766,-0.03046315349638462,-0.021517716348171234,-0.007442845031619072,-0.09391453862190247,-0.04150993004441261,-0.0034573350567370653,-0.04811330512166023,0.04404114559292793,-0.005672046914696693,-0.08348001539707184,-0.028278503566980362,0.08929657191038132,-0.024134114384651184,0.008473877795040607,0.12203357368707657,-0.1169808954000473,-0.021376078948378563,0.00925895944237709,0.1735410839319229,-0.005788035690784454,-0.02506955899298191,-0.030496185645461082],[0.1080603078007698,-0.004497694782912731,-0.04456575587391853,0.01831388846039772,-0.09269434213638306,-0.02203395403921604,0.09170597791671753,-0.07856184244155884,0.01818487048149109,-0.042559199035167694,-0.10688157379627228,-0.03515549376606941,-0.06532013416290283,-0.019944993779063225,0.02970736473798752,-0.03385484963655472,-0.04328387230634689,0.009124521166086197,-0.10831542313098907,-0.0819103941321373,0.02743559330701828,-0.09413237869739532,-0.03764244168996811,-0.012715119868516922,0.026694584637880325,-0.18618696928024292,-0.036892350763082504,-0.04246305674314499,0.03330537676811218,-0.043456267565488815,-0.028778312727808952,0.00882421899586916,0.005764503497630358,0.079247385263443,0.018196560442447662,0.11947239935398102,-0.021700972691178322,0.16533714532852173,0.02843581885099411,0.0772305577993393,-0.02975822426378727,-0.02604367583990097,0.022295890375971794,0.024343375116586685,-0.09147632122039795,0.10993112623691559,-0.0415334589779377,-0.015478500165045261,0.015872372314333916,-0.12611889839172363,-0.021453747525811195,0.09781549870967865,-0.02150724269449711,0.022598864510655403,0.08636575937271118,-0.02933068573474884,-0.08663313835859299,0.10977555811405182,-0.062349721789360046,0.02327660098671913,-0.07673349231481552,0.11397677659988403,0.03198792040348053,-0.032294899225234985],[0.0784042701125145,-0.0071098096668720245,-0.08990703523159027,-0.043618351221084595,-0.0023499687667936087,-0.09762776643037796,0.08193940669298172,0.034849442541599274,0.1740245521068573,-0.04345424845814705,-0.05122487619519234,0.011427418328821659,0.14921848475933075,0.122588612139225,-0.08843168616294861,-0.0009182996000163257,0.045047610998153687,0.019214380532503128,-0.08570653200149536,0.11107971519231796,-0.024567293003201485,-0.05398178473114967,-0.017031345516443253,0.01198465097695589,0.008467509411275387,0.0005581937730312347,-0.0014333080034703016,-0.04847848415374756,-0.08581417053937912,-0.017188092693686485,-0.024601636454463005,-0.05746235325932503,-0.022577987983822823,0.017377005890011787,-0.09971126168966293,0.03967910259962082,-0.0047684782184660435,0.0512353740632534,0.1534896343946457,-0.01790373958647251,-0.012497592717409134,-0.02488679811358452,-0.013156917877495289,-0.03272319212555885,-0.0864429697394371,-0.020955465734004974,0.007916809991002083,0.012143895030021667,0.004176250193268061,-0.15099214017391205,0.027370620518922806,0.01263853907585144,-0.016945939511060715,0.05206668749451637,-0.03871838003396988,-0.032882578670978546,0.029545631259679794,0.053397610783576965,-0.14291906356811523,-0.010694745928049088,0.08388415724039078,0.02748209424316883,-0.014632870443165302,0.01991991512477398],[0.1539924293756485,-0.008670472539961338,0.00983505416661501,-0.013909297063946724,-0.07592421770095825,0.07484012842178345,0.13173134624958038,-0.12900374829769135,-0.09546124190092087,0.002148396335542202,-0.15982367098331451,0.10326734185218811,-0.17597705125808716,-0.09792639315128326,-0.008615431375801563,-0.022316178306937218,-0.08717867732048035,-0.03273843601346016,-0.09748567640781403,-0.16738736629486084,0.010795687325298786,-0.12010089308023453,0.005222479347139597,-0.01913927122950554,-0.004618644714355469,-0.23667012155056,0.001199099700897932,-0.023313622921705246,0.11288303136825562,-0.04637137055397034,0.0296022966504097,0.1271904706954956,0.030627205967903137,0.05307793244719505,0.08531588315963745,0.16460999846458435,0.034424010664224625,0.2704777717590332,-0.10218136757612228,0.20371313393115997,-0.11372974514961243,0.041942398995161057,-0.023310549557209015,-0.009663444943726063,-0.0916660726070404,0.19641101360321045,0.01732490211725235,0.034406453371047974,-0.02816738188266754,-0.14232663810253143,0.02101900801062584,0.14997440576553345,-6.695091724395752e-05,-0.11933238059282303,0.12347178906202316,-0.009044047445058823,-0.1796901673078537,0.12640506029129028,0.06918220967054367,-0.011666908860206604,-0.09305697679519653,0.12069360166788101,-0.025607049465179443,0.000449322717031464],[0.052704766392707825,-0.05363237112760544,-0.053189147263765335,0.008379984647035599,-0.04994549602270126,-0.012655043974518776,0.1320633441209793,-0.05367017909884453,0.10477393120527267,-0.004386745393276215,-0.07881754636764526,0.10625536739826202,0.017171667888760567,0.05228617787361145,-0.18446968495845795,0.024127645418047905,-0.00017606824985705316,-0.01578049175441265,-0.11250249296426773,-0.07029550522565842,-0.019815657287836075,-0.11189518868923187,-0.003497244557365775,0.01717100292444229,0.00865248218178749,-0.27198997139930725,-0.008645191788673401,-0.00886489823460579,-0.027428235858678818,-0.01662909984588623,0.018224962055683136,0.020429441705346107,0.02598155289888382,-0.012992349453270435,0.022093797102570534,0.05102673918008804,0.03208405524492264,0.20077291131019592,0.07686523348093033,0.08055407553911209,0.006924288813024759,0.02120741456747055,-0.03566721826791763,0.002658311277627945,-0.060245443135499954,0.10024568438529968,-0.05071943253278732,0.010093152523040771,-0.040953297168016434,-0.08929324150085449,-0.00787656381726265,0.11149912327528,0.0059219845570623875,-0.0498812273144722,0.08836420625448227,-0.026546375826001167,-0.038246285170316696,0.043807800859212875,-0.08107047528028488,-0.010589342564344406,-0.011198005639016628,0.08427078276872635,-0.02462371066212654,0.03572632372379303],[0.08733553439378738,0.028806205838918686,-0.04247317090630531,0.016054514795541763,0.04430001974105835,0.08409132808446884,0.06646639108657837,-0.038200195878744125,0.056572914123535156,-0.019380027428269386,-0.029720766469836235,0.09248943626880646,-0.034698907285928726,0.03382915258407593,-0.12285071611404419,-0.051565058529376984,-0.025029610842466354,0.027400940656661987,-0.00649297283962369,0.0038143957499414682,-0.004865552764385939,-0.03922903165221214,0.024224668741226196,0.012597605586051941,0.01917973905801773,-0.15930409729480743,-0.0008962750434875488,0.0026328687090426683,0.018844611942768097,-0.03480708971619606,-0.001522570033557713,0.05603912100195885,-0.009275825694203377,0.020972954109311104,-0.01506235171109438,0.09411132335662842,0.00024066334299277514,0.040380317717790604,0.03266892209649086,0.05578438565135002,-0.028929321095347404,-0.017057400196790695,-0.02490508370101452,-0.03531748056411743,-0.10025500506162643,0.07787549495697021,-0.038265690207481384,-0.007530327886343002,0.024920843541622162,0.02904064953327179,-0.0412353053689003,0.10249468684196472,0.01296822540462017,-0.07183711230754852,0.10390367358922958,0.015412360429763794,-0.022693775594234467,0.11655581742525101,0.02685486152768135,0.0045295655727386475,-0.007685159798711538,0.060921404510736465,0.03776726871728897,0.011935895308852196],[0.00386489718221128,-0.00984923541545868,0.06093882769346237,0.0015743565745651722,-0.04735104739665985,0.035948991775512695,-0.002453733468428254,-0.07005635648965836,0.04011591151356697,-0.012813285924494267,0.014615880325436592,-0.08753134310245514,-0.16016386449337006,-0.16662465035915375,-0.08151385188102722,-0.06353135406970978,-0.003656514920294285,-0.018685102462768555,-0.014466667547821999,-0.01498458068817854,0.02863416261970997,0.019015992060303688,-0.017377367243170738,0.0032266431953758,0.0052668144926428795,-0.14899961650371552,-0.03473932668566704,0.022196980193257332,0.05904858559370041,-0.03737948462367058,-0.04694719240069389,0.06466536968946457,-0.014660471118986607,0.0014591364888474345,0.056689947843551636,-0.048541199415922165,-0.03918686509132385,-0.10134080797433853,-0.11240082234144211,0.034955110400915146,-0.027471264824271202,-0.0004938968340866268,-0.016682324931025505,-0.03692961856722832,0.05053440481424332,0.017630361020565033,-0.008989021182060242,-0.009541567414999008,0.00977100059390068,0.12299926578998566,-0.02323761396110058,-0.06758197396993637,-0.017666561529040337,-0.12507496774196625,0.06040520220994949,-0.023209337145090103,-0.007243277505040169,0.037731435149908066,0.013608530163764954,-0.04526887834072113,0.006349280010908842,0.025182394310832024,0.0009978829184547067,-0.03106698766350746],[0.05678240954875946,-0.03970125690102577,-0.06596790254116058,-0.012394320219755173,0.09622181206941605,-0.16696153581142426,-0.04384579882025719,0.13674810528755188,0.2553073763847351,-0.04481855407357216,0.055785153061151505,-0.08841957896947861,-0.024546846747398376,0.0044989087618887424,-0.018554752692580223,0.010679411701858044,0.10576120764017105,-0.0213861633092165,0.04427450895309448,0.14614292979240417,0.0033139612060040236,0.0515480563044548,0.002051742048934102,-0.0335993617773056,-0.03894772008061409,-0.3014977276325226,0.017014015465974808,-0.0346749871969223,-0.17692692577838898,-0.04950758442282677,-0.036081526428461075,-0.14019420742988586,0.005403697956353426,-0.10644842684268951,-0.1375453770160675,0.010008116252720356,-0.048392586410045624,-0.11911997944116592,0.02741682529449463,-0.09806133061647415,0.22320590913295746,0.006183524616062641,0.012538651935756207,-0.03729305788874626,0.04227414354681969,-0.09539058059453964,0.012843548320233822,-0.010432650335133076,-0.04722464084625244,0.10611563920974731,-0.016664955765008926,-0.05278570204973221,-0.011590242385864258,0.07799632102251053,-0.08174317330121994,0.01316299568861723,0.137651726603508,0.02205710858106613,-0.19479204714298248,0.002687137108296156,0.21731042861938477,-0.11827921867370605,-0.00676353182643652,-0.008860351517796516],[0.06676223874092102,-0.017900006845593452,0.027892859652638435,0.007315874099731445,-0.025278350338339806,0.04751471430063248,0.04943256452679634,-0.024384308606386185,0.020116234198212624,-0.039934344589710236,0.00689901877194643,-0.0032897149212658405,-0.020216746255755424,0.0015139731112867594,-0.023229889571666718,-0.010923115536570549,-0.06175987422466278,-0.038456596434116364,-0.004583507776260376,-0.06776607781648636,-0.017375260591506958,-0.01880963146686554,0.01105381641536951,0.03342660516500473,-0.03525694087147713,-0.16982759535312653,-0.025472581386566162,0.02238982543349266,0.051515594124794006,0.016552340239286423,0.019826926290988922,0.09035301208496094,-0.026096435263752937,0.05197308585047722,0.04084097594022751,0.0740491971373558,0.007563690654933453,0.16327324509620667,-0.05237743631005287,0.09720475226640701,-0.03845466300845146,-0.023039590567350388,-0.033029478043317795,-0.04214998707175255,-0.00798875093460083,0.03364020958542824,-0.002543278271332383,-0.012605169788002968,-0.037802424281835556,-0.054983533918857574,-0.008755192160606384,0.05113047733902931,-0.0013269000919535756,-0.02905259095132351,0.08618079125881195,-0.03171393275260925,-0.020717084407806396,0.04506810009479523,-0.0026707439683377743,-0.046177562326192856,-0.07788979262113571,0.031722377985715866,0.026841668412089348,-0.011552616022527218],[-0.08029893785715103,0.0009493677644059062,-0.06393978744745255,-0.005487128160893917,0.2423252910375595,-0.2687026858329773,-0.10203421115875244,0.2709142863750458,0.38507699966430664,0.027744991704821587,0.2009763866662979,0.003790804883465171,0.16872909665107727,0.3389001786708832,-0.21671439707279205,-0.033299826085567474,0.13941527903079987,0.0010963140521198511,0.18825945258140564,0.29569533467292786,0.031820446252822876,0.20160728693008423,-0.037513960152864456,-0.010572399012744427,-0.040655747056007385,-0.12660367786884308,-0.03861065208911896,0.030671535059809685,-0.35577037930488586,-0.024783216416835785,-0.04073360189795494,-0.3249642252922058,-0.014965793117880821,-0.06772348284721375,-0.1752573549747467,-0.1402207762002945,-0.022752678021788597,-0.2230142056941986,0.16511358320713043,-0.263616144657135,0.32231616973876953,-0.03352529555559158,0.021087273955345154,0.028242729604244232,0.1280907392501831,-0.2673402428627014,-0.005850153509527445,-0.02289538085460663,0.020658006891608238,0.06404338777065277,-0.025959748774766922,-0.011863147839903831,0.016787365078926086,0.1476352959871292,-0.26860061287879944,0.015701651573181152,0.32444214820861816,-0.04674007371068001,-0.33550938963890076,0.025344835594296455,0.35832852125167847,-0.2531084716320038,-0.017573047429323196,-0.018595699220895767],[0.03332023322582245,-0.04218596592545509,-0.01682988926768303,-0.02434631809592247,-0.01341080293059349,-0.042748820036649704,-0.008533122017979622,0.01056183036416769,0.05595265328884125,-0.01370376069098711,0.014864182099699974,0.04495658725500107,-0.14847548305988312,-0.008954321965575218,0.007494957651942968,-0.0062318230047822,0.12268045544624329,-0.03917698562145233,0.014369339682161808,0.06852082163095474,-0.03565860167145729,0.03120405040681362,-0.005969013087451458,-0.0022455863654613495,0.0012811364140361547,-0.20742511749267578,-0.01679052598774433,-0.18535785377025604,-0.02041308395564556,-0.03507436439394951,-0.036412499845027924,-0.07146963477134705,-0.04200580343604088,-0.11376562714576721,-0.013569353148341179,0.040441643446683884,-0.012396550737321377,0.1064407005906105,-0.08193415403366089,-0.04066508263349533,0.11980146169662476,0.0010962021769955754,0.019587012007832527,-0.01271409448236227,-0.01772376522421837,-0.03443717211484909,0.023289449512958527,-0.028155378997325897,-0.0090180654078722,0.19345112144947052,-0.006732621230185032,-0.0343288779258728,0.03763093799352646,-0.10077925026416779,-0.007435495499521494,0.02032458782196045,0.042704034596681595,0.04310545325279236,-0.18252871930599213,-0.004317922051995993,0.06574533879756927,0.035693466663360596,-0.031134411692619324,0.022834356874227524],[0.07165442407131195,-0.028784610331058502,-0.0857737809419632,-0.03141714632511139,-0.045857932418584824,-0.002748822793364525,0.05970313400030136,-0.018894867971539497,0.10685084015130997,0.023988358676433563,-0.05708201229572296,-0.027395762503147125,0.0027816009242087603,0.041908614337444305,-0.16426542401313782,-0.027765167877078056,0.021095553413033485,-0.05482606589794159,-0.07013466209173203,0.03568987175822258,0.009486309252679348,-0.030913738533854485,0.013150399550795555,-0.0509447380900383,-0.016877738758921623,0.015900161117315292,0.027960287407040596,-0.043761271983385086,0.012786434963345528,0.01874103955924511,-0.008164600469172001,0.045113127678632736,0.019752951338887215,-0.04015791416168213,-0.05197369307279587,0.03548717871308327,-0.05055498704314232,0.0136185884475708,0.016374770551919937,0.05182905122637749,-0.020530611276626587,0.008370439521968365,-0.0014191038208082318,-0.014113710261881351,-0.037218522280454636,0.014411566779017448,-0.007161075249314308,0.014406216330826283,0.024340050294995308,-0.030419928953051567,-0.03182751312851906,-0.010522966273128986,0.004221953917294741,0.017230400815606117,0.05601922795176506,-0.01421598345041275,0.025321410968899727,0.08241049200296402,-0.010092140175402164,-0.010336783714592457,0.014693629927933216,0.039768870919942856,-0.03753332793712616,0.005644138436764479],[-0.010358212515711784,-0.037848781794309616,0.034625567495822906,-0.008218945004045963,0.05896653234958649,-0.015026690438389778,-0.04088970273733139,0.004101860802620649,0.11834697425365448,-0.010370907373726368,-0.008280269801616669,-0.06324373930692673,0.10989496111869812,0.16967692971229553,-0.09785193204879761,0.00888841599225998,-0.020241213962435722,-0.019034456461668015,-0.043579235672950745,0.09971994161605835,-0.04742911830544472,0.00039206125074997544,-0.038396988064050674,0.006210409104824066,0.02171137183904648,0.019744407385587692,-0.03501444309949875,0.003945599310100079,-0.11419674754142761,0.011379878968000412,-0.022007210180163383,-0.058232348412275314,-0.02581765502691269,-0.044020723551511765,0.05846068635582924,-0.005639912560582161,-0.026804497465491295,0.1142086610198021,0.01946944184601307,-0.05481978878378868,-0.027104590088129044,-0.023036504164338112,-0.02752644196152687,0.017368696630001068,0.004512191284447908,0.0028193341568112373,0.028132138773798943,-0.022389128804206848,-0.004086021799594164,-0.10744800418615341,0.016835153102874756,-0.07972801476716995,0.020109588280320168,0.04974610358476639,0.012520400807261467,0.0022833654657006264,0.06472278386354446,-0.08088824152946472,-0.17587275803089142,0.026676952838897705,0.10357905179262161,-0.03984970599412918,0.024778634309768677,0.00872015580534935],[0.03545377403497696,0.00010813771223183721,-0.019611692056059837,-0.00930256862193346,-0.02381245791912079,0.02666420303285122,0.09366243332624435,-0.02653396688401699,0.015300795435905457,-0.017529798671603203,-0.0551581084728241,0.10772819817066193,-0.03681332617998123,-0.020128075033426285,-0.06537037342786789,-0.025979934260249138,0.01482478715479374,-0.042601823806762695,-0.03456271439790726,-0.06649769097566605,-0.0335092768073082,-0.03279966488480568,0.02308281697332859,-0.018417024984955788,-0.03794978931546211,-0.2736600637435913,0.0019062261562794447,-0.045802682638168335,-0.010565834119915962,-0.013744566589593887,-0.01038394495844841,0.057171355932950974,0.037465061992406845,0.031145520508289337,0.004737872630357742,0.08807367831468582,-0.01780880242586136,0.10520336031913757,-0.007840847596526146,0.053208302706480026,-0.020242441445589066,-0.0043160803616046906,-0.001304204692132771,0.028886806219816208,-0.0005152140511199832,0.06508377194404602,0.015293602831661701,0.0165492482483387,-0.025250347331166267,-0.03669719025492668,-0.04524433985352516,0.07821254432201385,0.011907828040421009,-0.06056711822748184,0.0669039934873581,-0.03320133686065674,-0.07109289616346359,0.03142017498612404,0.03553083539009094,-0.04424596577882767,-0.03505139425396919,0.09869567304849625,0.007010169327259064,-0.01448292750865221],[-0.021473780274391174,0.01032212283462286,0.042029280215501785,-0.01903345435857773,0.12481801211833954,-0.06304566562175751,-0.07224642485380173,0.09782340377569199,0.11270149797201157,-0.015557188540697098,0.11726170033216476,-0.1228121891617775,-0.028922168537974358,-0.039098843932151794,-0.19621141254901886,0.03466607257723808,0.03453855589032173,-0.022160794585943222,0.07908488065004349,0.15826870501041412,-0.018169650807976723,0.11611557006835938,-0.024848783388733864,0.01838790625333786,0.021350303664803505,-0.13264800608158112,-0.03306589648127556,-0.05855027958750725,-0.08405440300703049,-0.01820554956793785,0.02015703357756138,-0.02589324116706848,-0.010156277567148209,-0.061239708214998245,-0.0181081835180521,-0.0792347714304924,-0.029211917892098427,-0.0820385217666626,0.026649264618754387,-0.11371204257011414,0.14426732063293457,0.0021438461262732744,0.016747387126088142,0.02320522628724575,0.1154007762670517,-0.12468759715557098,-0.016970248892903328,-0.006435574498027563,0.006099900230765343,0.15275950729846954,0.019367368891835213,-0.12874461710453033,0.007089971099048853,-0.022893281653523445,-0.05998364835977554,0.008430402725934982,0.12104246765375137,-0.03857668489217758,-0.13866402208805084,-0.01959664560854435,0.1366777867078781,-0.14179354906082153,-0.05123992636799812,-0.013829189352691174],[0.08750755339860916,0.015646103769540787,0.04207105189561844,0.020303433761000633,-0.05952809005975723,0.10052510350942612,0.0719129741191864,-0.06578779965639114,-0.07091730087995529,0.003264382481575012,-0.0606292262673378,0.07989532500505447,-0.14147330820560455,-0.09588665515184402,-0.026429548859596252,-0.057680390775203705,-0.03956025093793869,0.01635970175266266,-0.024746883660554886,-0.09785138070583344,0.018146328628063202,-0.03741391375660896,-0.006396111100912094,-0.01559794694185257,0.0049161845818161964,-0.20846763253211975,0.035066209733486176,-0.05077275261282921,0.12966474890708923,-0.02472316473722458,0.012668665498495102,0.08707024157047272,0.028722306713461876,0.05536925047636032,0.1121748834848404,0.13348400592803955,-0.04658874124288559,0.17389287054538727,-0.09252077341079712,0.1431628316640854,-0.07930050790309906,0.017231695353984833,-0.007763485424220562,0.0020363866351544857,-0.0721370279788971,0.14637361466884613,-0.025888239964842796,0.02554408647119999,0.029544854536652565,-0.10111024230718613,0.033768996596336365,0.057443767786026,0.02034505270421505,-0.08505009114742279,0.11213821917772293,0.008443724364042282,-0.08638176321983337,0.07597757130861282,0.10058902204036713,-0.005260977894067764,-0.04264910891652107,0.11338844150304794,0.012736443430185318,-0.02364553138613701],[-0.05166235193610191,0.007075475063174963,0.09265466034412384,0.03694920986890793,0.12059005349874496,0.003913955297321081,-0.06596511602401733,-0.012674110941588879,0.017970841377973557,-0.01570809632539749,0.057391226291656494,0.10002969950437546,-0.16868673264980316,-0.044665414839982986,-0.1349896341562271,-0.01226823590695858,0.0016085278475657105,0.0400552973151207,0.12119794636964798,0.03492270037531853,0.04018300771713257,0.07892882823944092,-0.01694585382938385,-0.054907117038965225,0.027587182819843292,-0.22214959561824799,-0.03855756297707558,-0.07278425991535187,-0.017963482066988945,0.032069750130176544,-0.025449484586715698,0.05226615071296692,0.011192169040441513,-0.13653816282749176,0.08609359711408615,-0.058717578649520874,0.03862271457910538,0.08973769098520279,-0.10504807531833649,-0.003998888656497002,0.056061580777168274,0.032418787479400635,0.028484582901000977,0.01653122529387474,0.04607047140598297,-0.059861764311790466,0.013893624767661095,0.027175329625606537,0.0259384922683239,0.14773337543010712,0.020631231367588043,-0.07077676057815552,0.009272404946386814,-0.07817637175321579,-0.031938035041093826,0.03365706652402878,0.02815445512533188,-0.024921739473938942,-0.05661279708147049,-0.01876489445567131,0.09869060665369034,-0.061621684581041336,-0.01556878350675106,-0.009927954524755478],[0.03162851929664612,0.02363792434334755,0.0315544456243515,0.01832485757768154,0.06359054148197174,0.02866465412080288,-0.014332931488752365,0.0477791503071785,-0.042831677943468094,-0.00538264587521553,0.0701281800866127,0.017826877534389496,-0.0427485853433609,-0.1427675038576126,-0.16365331411361694,0.00993726123124361,-0.05429375544190407,0.022045135498046875,0.05857834964990616,0.10386330634355545,-0.017700960859656334,0.0933777317404747,0.017247363924980164,-0.04530395567417145,-0.04334947094321251,-0.0138503797352314,-0.007780298590660095,-0.08577720075845718,0.007256675977259874,-0.035166241228580475,0.015040709637105465,-0.023820746690034866,0.015880132094025612,-0.017245633527636528,-0.0024440421257168055,0.0070459917187690735,0.02302074246108532,-0.011466670781373978,-0.025324055925011635,-0.0010135200573131442,0.058992572128772736,-0.02540460042655468,-0.017080018296837807,-0.00699422275647521,0.06449553370475769,0.0035245739854872227,-0.029672354459762573,0.02799837291240692,0.018283836543560028,0.11574327945709229,-0.018900951370596886,-0.07043091207742691,-0.022431358695030212,0.027757637202739716,-0.03832099214196205,-0.05522659420967102,0.04236450046300888,0.0435025654733181,-0.017003025859594345,-0.025571659207344055,0.1035696417093277,0.00982466246932745,-0.02429877035319805,0.003789231413975358],[-0.12316519021987915,-0.047383371740579605,0.17688602209091187,0.013082054443657398,0.09296869486570358,-0.008891282603144646,-0.09342095255851746,-0.01887618564069271,-0.25036975741386414,0.003972184844315052,0.11392664909362793,-0.1399594247341156,-0.20044969022274017,-0.1088554635643959,-0.0900268703699112,0.009812884032726288,-0.03076202981173992,0.017339030280709267,0.11032240092754364,0.02953960932791233,-0.018203817307949066,0.07624123245477676,-0.03595095872879028,0.009827310219407082,-0.02356269769370556,-0.1351400911808014,0.01683739945292473,-0.0396706648170948,0.011422552168369293,-0.0021318893413990736,0.008417204953730106,0.05453807860612869,-0.024959292262792587,-0.12739798426628113,0.1493517905473709,-0.03423589840531349,0.018807342275977135,-0.0503871887922287,-0.1809280812740326,-0.04086309298872948,0.04867158085107803,-0.027128305286169052,-0.053430818021297455,-0.02197272516787052,0.11168260872364044,-0.045971520245075226,-0.038562074303627014,-0.0039240471087396145,-0.039874233305454254,0.1705646812915802,0.0237140916287899,-0.09468124061822891,-0.0037209447473287582,-0.07037996500730515,-0.037526510655879974,-0.0156096201390028,0.08827769756317139,-0.12357940524816513,-0.005036514718085527,0.007305136416107416,0.03742140159010887,-0.05355529859662056,0.02394256927073002,-0.0011586217442527413],[-0.018593497574329376,0.011151360347867012,0.004856545478105545,-0.014189531095325947,-0.04199312627315521,0.02920338325202465,0.07636863738298416,-0.07797682285308838,-0.12279222905635834,0.02259906195104122,-0.04083177447319031,0.020402941852808,-0.2029317170381546,-0.16341015696525574,0.15430830419063568,-0.022730104625225067,0.0356307253241539,-0.03800208494067192,-0.012031659483909607,-0.029093818739056587,0.007480286527425051,-0.10425460338592529,0.006393847055733204,-0.023221861571073532,-0.010579535737633705,-0.2859627604484558,0.026700178161263466,-0.18451207876205444,0.06875745952129364,-0.04799831658601761,0.016945943236351013,0.11680112779140472,-0.04444003850221634,-0.02345855161547661,0.1200295090675354,0.045382268726825714,0.0162503719329834,0.14382342994213104,-0.054909951984882355,0.10104463994503021,0.027353689074516296,-0.05368081480264664,-0.043371766805648804,-0.011345797218382359,-0.037960611283779144,0.09209837764501572,-0.009138545021414757,0.01408096868544817,0.007722971495240927,0.09464628994464874,0.017427092418074608,0.028258230537176132,0.019267600029706955,-0.13116905093193054,0.07876399159431458,-0.05135469138622284,0.010538242757320404,0.036316391080617905,-0.043505821377038956,-0.045985955744981766,-0.054603565484285355,0.07861495018005371,-0.02726261131465435,-0.03253551200032234],[-0.033031661063432693,0.01672009564936161,0.11420829594135284,-0.015340383164584637,0.02593306452035904,0.088838592171669,-0.010748140513896942,-0.10877464711666107,-0.07346110045909882,-0.02458995021879673,0.05270912125706673,-0.021683398634195328,-0.1272697150707245,-0.026116570457816124,-0.04108620062470436,0.026137161999940872,-0.18400315940380096,0.03304261341691017,0.04193596541881561,-0.039840370416641235,-0.04240097850561142,0.02622581087052822,-0.027192261070013046,-0.045768506824970245,-0.0017870976589620113,-0.2286382019519806,-0.00486797746270895,-0.014940650202333927,0.14923587441444397,0.02588164247572422,-0.029645448550581932,0.09866835922002792,0.03598538041114807,0.023433871567249298,0.15812578797340393,-0.026439804583787918,-0.04283818602561951,0.069254569709301,-0.09399624913930893,0.015265625901520252,-0.07293552160263062,0.018584182485938072,-0.021097276359796524,0.016581835225224495,0.027132835239171982,0.0666130930185318,0.022344449535012245,-0.001337696798145771,-0.026895485818386078,0.16984206438064575,0.024396805092692375,0.00113100151065737,-0.007300635799765587,-0.0768677145242691,0.06570804864168167,0.019504867494106293,-0.009796299040317535,-0.025903986766934395,0.07857128232717514,-0.02807638607919216,-0.06368573755025864,0.05534977465867996,-0.047586794942617416,0.02427934668958187],[-0.14350847899913788,0.008592907339334488,0.16313853859901428,-0.028688492253422737,0.2747003138065338,-0.1432872712612152,-0.2550881505012512,0.23632478713989258,-0.04655160382390022,0.0031698921229690313,0.2983206808567047,-0.1706961989402771,-0.08798271417617798,-0.09732644259929657,-0.222150519490242,-0.023001067340373993,0.05690135806798935,-0.010590866208076477,0.28007611632347107,0.30942416191101074,0.00639283237978816,0.2669523358345032,0.015204383991658688,-0.018118470907211304,0.011410185135900974,-0.19437488913536072,0.017488593235611916,-0.28665855526924133,-0.22371043264865875,0.017241917550563812,-0.04384951665997505,-0.17453986406326294,0.0020837662741541862,-0.31693997979164124,-0.008411603979766369,-0.12970604002475739,0.018516838550567627,-0.16503730416297913,-0.0813969075679779,-0.272774875164032,0.2885787785053253,-0.03292121738195419,-0.01045746635645628,0.021528853103518486,0.28353753685951233,-0.3024260699748993,0.0030617527663707733,0.011253470554947853,-0.028879225254058838,0.3035191297531128,0.011170386336743832,-0.27322685718536377,-0.0432681180536747,0.14507123827934265,-0.2914676070213318,-0.03337126970291138,0.26647838950157166,-0.1696447730064392,-0.26198485493659973,-0.009660388343036175,0.2863733172416687,-0.27002954483032227,-0.006620955653488636,-0.033522140234708786],[0.05882050842046738,0.0002189572696806863,0.13321959972381592,0.04007856547832489,-0.05965239927172661,0.08686432987451553,0.025679318234324455,-0.12760916352272034,-0.11263266950845718,0.0038989356253296137,-0.022224074229598045,0.008581212721765041,-0.2364795058965683,-0.1715145856142044,-0.03400113806128502,-0.008791065774857998,-0.018275152891874313,-0.009343594312667847,-0.037486203014850616,-0.11071411520242691,-0.0027918629348278046,-0.0774775892496109,0.03156159818172455,0.00023283064365386963,0.027869587764143944,-0.1668088436126709,0.009583599865436554,-0.25720006227493286,0.12428092956542969,-0.028653740882873535,-0.005663435906171799,0.10768381506204605,-0.018571887165308,0.025039978325366974,0.16334348917007446,0.02952549420297146,-0.0403079129755497,0.2104359269142151,-0.1097145825624466,0.1282891035079956,-0.08209741860628128,-0.01324679795652628,0.008838617242872715,-0.014375274069607258,-0.009793396107852459,0.07717189937829971,0.010302512906491756,0.0030818097293376923,-0.027285270392894745,0.24047788977622986,-0.018981434404850006,0.04761914163827896,-0.021631481125950813,-0.1371455192565918,0.08537889271974564,0.02754196524620056,-0.07533648610115051,0.03001146949827671,-0.043743133544921875,0.010024509392678738,-0.022913290187716484,0.06366023421287537,0.011637608520686626,-0.0026076948270201683],[0.07039493322372437,0.006527123507112265,-0.010116917081177235,-0.0286864060908556,0.034064341336488724,-0.028976084664463997,-0.040604326874017715,0.06275245547294617,0.019022896885871887,-0.0404888354241848,-0.05390593782067299,-0.06610123068094254,-0.021166905760765076,-0.13153137266635895,-0.22781947255134583,0.009656036272644997,-0.03597457706928253,0.007531586568802595,-0.02543775551021099,0.03635118529200554,0.03355555236339569,-0.03692204877734184,-0.05004829913377762,-0.020592885091900826,-0.0020160572603344917,-0.006449702195823193,-0.04509405419230461,-0.029758255928754807,-0.006981830112636089,-0.0382426381111145,-0.005791216157376766,0.0265173502266407,-0.029901865869760513,-0.05490027368068695,0.03023824654519558,0.02872469834983349,-0.05016004666686058,-0.0362551175057888,-0.013872305862605572,-0.02142709121108055,0.09677740186452866,0.017110303044319153,-0.021270664408802986,-0.004760049749165773,0.018591977655887604,-0.011821484193205833,0.014790278859436512,-0.031891003251075745,-0.009890278801321983,0.022505538538098335,-0.031203502789139748,-0.0456136092543602,-0.025489693507552147,-0.03032296523451805,-0.015357076190412045,0.012632415629923344,0.04776568338274956,0.028144115582108498,0.00294061959721148,-0.04339935630559921,0.05756421387195587,-0.045616913586854935,-0.007594316266477108,-0.02634778991341591],[-0.10511208325624466,0.02666417881846428,0.15891562402248383,0.0282557625323534,0.0587155856192112,0.11817429214715958,-0.10563955456018448,-0.03251642361283302,0.022778969258069992,-0.006228419486433268,0.03807256370782852,-0.07279635965824127,-0.14983083307743073,0.021465923637151718,-0.1705624759197235,0.008427925407886505,-0.052246395498514175,-0.0037908509839326143,0.13621391355991364,0.030107663944363594,-0.022852402180433273,0.06267339736223221,-0.04235056787729263,-0.05306524783372879,-0.04542895033955574,-0.012514357455074787,-0.045999735593795776,-0.09099442511796951,0.05628163740038872,-0.023413749411702156,-0.04069272801280022,0.10256316512823105,0.0008652798132970929,-0.12935073673725128,0.16034981608390808,-0.09577122330665588,-0.004682132042944431,0.026229284703731537,-0.14348362386226654,-0.029361220076680183,-0.00913858599960804,0.0005651136161759496,0.008958866819739342,0.025697359815239906,0.12365593761205673,0.013349531218409538,-0.05322743579745293,0.0005266639636829495,0.01928602159023285,0.18626141548156738,-0.007508102338761091,-0.18003392219543457,-0.011143584735691547,-0.1689540445804596,0.039514534175395966,0.025621624663472176,-0.04217583313584328,-0.15863241255283356,0.015610474161803722,-0.004094351083040237,-0.01897607557475567,0.004966673441231251,-0.02967296727001667,-0.02453436888754368],[-0.05732331424951553,-0.01119867991656065,0.09435960650444031,-0.008783211931586266,0.06616033613681793,0.05017450079321861,-0.008152946829795837,-0.0025803123135119677,-0.023562747985124588,-0.0311521515250206,0.08894703537225723,0.1154700219631195,-0.10988037288188934,-0.029467910528182983,-0.06885599344968796,-0.025606682524085045,0.052684202790260315,-0.021229306235909462,0.1274082362651825,-0.002011223929002881,-0.016173603013157845,0.05311024188995361,-0.018711527809500694,-0.044762495905160904,0.0026979802642017603,-0.13023501634597778,0.023350132629275322,-0.03150176629424095,0.03670545294880867,0.006866416893899441,0.025139741599559784,-0.01707163080573082,0.0263861995190382,-0.0746864601969719,0.05325473099946976,-0.02622061036527157,-0.029324229806661606,0.06813294440507889,-0.019069287925958633,-0.029282988980412483,0.06950058043003082,-0.024242635816335678,-0.037453312426805496,0.005165622103959322,0.04172426462173462,0.01899060793220997,-0.003704317379742861,0.011371861211955547,0.006647741887718439,0.15016426146030426,0.010324934497475624,-0.09968999773263931,-0.02863982319831848,0.009506184607744217,0.0223250575363636,0.011806570924818516,0.025021040812134743,-0.011672290973365307,-0.006730542052537203,-0.013874360360205173,0.10093620419502258,-0.06432186812162399,-0.021056797355413437,-0.003715182887390256],[-0.06938418745994568,0.0121596809476614,0.22167059779167175,-0.019446855410933495,0.20011834800243378,0.0005433307378552854,-0.12062278389930725,-0.0037540060002356768,-0.2773404121398926,0.02718026004731655,0.16868072748184204,-0.21268002688884735,-0.2506028115749359,-0.28026166558265686,-0.24420534074306488,0.005206831265240908,-0.03627726435661316,-0.015965713188052177,0.1684904545545578,0.09639830142259598,0.006530386861413717,0.15351372957229614,0.008218995295464993,0.01882587932050228,0.009731857106089592,-0.12456343322992325,0.016862547025084496,-0.19402308762073517,-0.029810024425387383,-0.027793442830443382,-0.038923315703868866,-0.047822244465351105,-0.004785617347806692,-0.2031676173210144,0.14561761915683746,-0.019224176183342934,-0.03247012570500374,0.04738321155309677,-0.1991836577653885,-0.10334322601556778,0.0976652204990387,0.016746094450354576,-0.0023807391989976168,-0.0266940388828516,0.157958522439003,-0.052591271698474884,-0.021441809833049774,0.046826306730508804,-0.03357785940170288,0.21901190280914307,0.05617853254079819,-0.1500307023525238,-0.046709079295396805,-0.0726616233587265,-0.021056165918707848,-0.014220241457223892,0.10622993856668472,-0.1378391534090042,-0.05401216074824333,-0.028109276667237282,0.14365187287330627,-0.06998980790376663,0.026625627651810646,0.00032619599369354546],[0.06040347367525101,0.02574155479669571,0.01701214723289013,0.029791640117764473,-0.00036504576564766467,0.018940376117825508,0.06238118186593056,-0.018094608560204506,-0.05846588313579559,-0.028723636642098427,-0.061574965715408325,-0.057869356125593185,-0.06422974169254303,-0.09162760525941849,-0.0269160158932209,0.00706317275762558,0.0039308080449700356,-0.019305622205138206,-0.021267002448439598,-0.07491172850131989,-0.04128773882985115,0.005549770314246416,0.0019391326932236552,-0.03156645968556404,0.013378698378801346,-0.11748221516609192,-0.04262860491871834,-0.09818263351917267,0.09218497574329376,0.020078308880329132,-0.01103312335908413,0.0815744400024414,0.010495292954146862,0.02575151063501835,0.05328354239463806,0.05368960648775101,0.020002787932753563,0.06915151327848434,-0.040365688502788544,0.09732581675052643,-0.052157435566186905,0.020504873245954514,-0.0023858884815126657,-0.006539107300341129,-0.05572724714875221,0.10782439261674881,-0.025685764849185944,-0.03361424431204796,-0.0229896642267704,-0.07777515798807144,0.017495911568403244,0.09665645658969879,-0.007177198305726051,-0.039360739290714264,0.046017538756132126,-0.04010505601763725,-0.04129339009523392,0.060783132910728455,0.06352180242538452,-0.003998986911028624,-0.06441200524568558,0.10503914207220078,0.008184313774108887,-0.02811061032116413],[0.037239138036966324,-0.014162713661789894,0.007098715286701918,0.018512535840272903,0.13719312846660614,-0.09991119801998138,-0.13194774091243744,0.11778516322374344,-0.018314596265554428,-0.03895596042275429,0.102121502161026,0.030142540112137794,-0.06990553438663483,-0.2711474597454071,-0.21249675750732422,-0.0170035008341074,0.055789269506931305,-0.03443025425076485,0.08890842646360397,0.18048518896102905,-0.01879303902387619,0.08748167753219604,0.02554893121123314,0.0018549534725025296,-0.03376144915819168,-0.06156576797366142,0.03867143392562866,-0.2656462788581848,-0.04618234932422638,-0.037908393889665604,0.006509685888886452,-0.1100362241268158,-0.013122376054525375,-0.11761479079723358,-0.007976170629262924,0.005518066231161356,0.03789462894201279,-0.042781949043273926,-0.020289061591029167,-0.15623515844345093,0.1828639805316925,0.023373045027256012,0.010766170918941498,-0.012805121019482613,0.08699345588684082,-0.15140162408351898,0.0035149026662111282,0.027983076870441437,0.030628344044089317,0.11124096065759659,-0.00860119704157114,-0.10357989370822906,-0.025449739769101143,0.042303238064050674,-0.12408298999071121,-0.04443648084998131,0.13024629652500153,0.013082792982459068,-0.08605576306581497,-0.010348368436098099,0.17114169895648956,-0.13675931096076965,-0.034999649971723557,-0.03454919531941414],[0.05160640552639961,0.004614557605236769,0.037798862904310226,-0.0022010840475559235,0.08950173109769821,-0.04415154457092285,-0.06380103528499603,0.11178343743085861,-0.09214133769273758,-0.016442062333226204,0.06464163213968277,-0.08552666753530502,0.05091188848018646,-0.23213952779769897,-0.22515282034873962,-0.06055615097284317,-0.045364540070295334,0.02012544497847557,0.07767096906900406,0.14499278366565704,-0.03866228461265564,0.06934286653995514,-0.03620769828557968,-0.04243713617324829,0.006070569157600403,0.16779093444347382,-0.01899094134569168,-0.003817448392510414,-0.07416429370641708,0.0002877935767173767,0.020415564998984337,-0.11039508879184723,-0.031314603984355927,-0.04606757313013077,-0.011542282067239285,0.026279054582118988,0.038388751447200775,-0.08280136436223984,0.0016419498715549707,-0.11832714080810547,0.08320914953947067,-0.015075874514877796,0.005013585090637207,0.04701851308345795,0.04863298684358597,-0.07626818120479584,0.017641905695199966,-0.020714115351438522,-0.018240293487906456,0.044339340180158615,0.01879028044641018,-0.05309037119150162,0.01280111726373434,0.026888275519013405,-0.0992012694478035,-0.052728697657585144,0.11437270045280457,0.010176676325500011,-0.047592248767614365,0.025964908301830292,0.16571460664272308,-0.08667080104351044,0.034910038113594055,0.02391917258501053],[-0.13705432415008545,-0.02243824675679207,0.05549214780330658,-0.023715829476714134,0.21077819168567657,-0.049025487154722214,-0.14204557240009308,0.1880674809217453,